<?xml version="1.0"?>
<opencv_storage>
<cascade>
  <stageType>BOOST</stageType>
  <featureType>HAAR</featureType>
  <height>24</height>
  <width>24</width>
  <stageParams>
    <boostType>GAB</boostType>
    <minHitRate>9.9900001287460327e-01</minHitRate>
    <maxFalseAlarm>5.0000000000000000e-01</maxFalseAlarm>
    <weightTrimRate>9.4999999999999996e-01</weightTrimRate>
    <maxDepth>1</maxDepth>
    <maxWeakCount>100</maxWeakCount></stageParams>
  <featureParams>
    <maxCatCount>0</maxCatCount>
    <featSize>1</featSize>
    <mode>ALL</mode></featureParams>
  <stageNum>20</stageNum>
  <stages>
    <!-- stage 0 -->
    <_>
      <maxWeakCount>21</maxWeakCount>
      <stageThreshold>-1.2639433145523071e+00</stageThreshold>
      <weakClassifiers>
        <_>
          <internalNodes>
            0 -1 158 2.3141506314277649e-01</internalNodes>
          <leafValues>
            3.5933390259742737e-02 7.8213506937026978e-01</leafValues></_>
        <_>
          <internalNodes>
            0 -1 255 9.1490149497985840e-02</internalNodes>
          <leafValues>
            -1.2003450840711594e-01 6.1728870868682861e-01</leafValues></_>
        <_>
          <internalNodes>
            0 -1 81 2.5797477364540100e-01</internalNodes>
          <leafValues>
            -1.6919156908988953e-01 7.1798491477966309e-01</leafValues></_>
        <_>
          <internalNodes>
            0 -1 159 -8.5958018898963928e-02</internalNodes>
          <leafValues>
            7.1835291385650635e-01 -1.2305486202239990e-01</leafValues></_>
        <_>
          <internalNodes>
            0 -1 381 -4.4717770069837570e-02</internalNodes>
          <leafValues>
            4.3412658572196960e-01 -2.3785452544689178e-01</leafValues></_>
        <_>
          <internalNodes>
            0 -1 330 -8.2945302128791809e-02</internalNodes>
          <leafValues>
            7.3844522237777710e-01 -9.7374454140663147e-02</leafValues></_>
        <_>
          <internalNodes>
            0 -1 505 -1.6617175191640854e-02</internalNodes>
          <leafValues>
            5.1955133676528931e-01 -1.8969705700874329e-01</leafValues></_>
        <_>
          <internalNodes>
            0 -1 522 -3.4945202060043812e-03</internalNodes>
          <leafValues>
            -5.4712426662445068e-01 1.9484457373619080e-01</leafValues></_>
        <_>
          <internalNodes>
            0 -1 385 5.1219597458839417e-02</internalNodes>
          <leafValues>
            -1.7339947819709778e-01 5.4673600196838379e-01</leafValues></_>
        <_>
          <internalNodes>
            0 -1 613 -2.9760089819319546e-04</internalNodes>
          <leafValues>
            -3.7010082602500916e-01 2.8692355751991272e-01</leafValues></_>
        <_>
          <internalNodes>
            0 -1 625 -4.5650992542505264e-03</internalNodes>
          <leafValues>
            -5.3509289026260376e-01 1.3910849392414093e-01</leafValues></_>
        <_>
          <internalNodes>
            0 -1 504 -9.5667399000376463e-04</internalNodes>
          <leafValues>
            -6.0426127910614014e-01 1.5012821555137634e-01</leafValues></_>
        <_>
          <internalNodes>
            0 -1 504 7.4257800588384271e-04</internalNodes>
          <leafValues>
            1.3466046750545502e-01 -6.0787063837051392e-01</leafValues></_>
        <_>
          <internalNodes>
            0 -1 423 -4.2782450327649713e-04</internalNodes>
          <leafValues>
            -3.6700731515884399e-01 1.9336453080177307e-01</leafValues></_>
        <_>
          <internalNodes>
            0 -1 423 7.8628322808071971e-04</internalNodes>
          <leafValues>
            2.3970632255077362e-01 -5.1465165615081787e-01</leafValues></_>
        <_>
          <internalNodes>
            0 -1 336 1.0103369504213333e-01</internalNodes>
          <leafValues>
            -1.2142626941204071e-01 7.8371602296829224e-01</leafValues></_>
        <_>
          <internalNodes>
            0 -1 312 -1.4260822208598256e-03</internalNodes>
          <leafValues>
            -3.6504289507865906e-01 2.1961124241352081e-01</leafValues></_>
        <_>
          <internalNodes>
            0 -1 464 -7.1672424674034119e-02</internalNodes>
          <leafValues>
            8.5522437095642090e-01 -1.0097201913595200e-01</leafValues></_>
        <_>
          <internalNodes>
            0 -1 120 2.2964084148406982e-01</internalNodes>
          <leafValues>
            1.0514526814222336e-01 -8.9742630720138550e-01</leafValues></_>
        <_>
          <internalNodes>
            0 -1 391 5.6978594511747360e-03</internalNodes>
          <leafValues>
            1.0975567996501923e-01 -6.2890344858169556e-01</leafValues></_>
        <_>
          <internalNodes>
            0 -1 582 -1.4150777133181691e-04</internalNodes>
          <leafValues>
            -3.0695462226867676e-01 2.3419760167598724e-01</leafValues></_></weakClassifiers></_>
    <!-- stage 1 -->
    <_>
      <maxWeakCount>24</maxWeakCount>
      <stageThreshold>-1.1699596643447876e+00</stageThreshold>
      <weakClassifiers>
        <_>
          <internalNodes>
            0 -1 95 -1.0660628974437714e-01</internalNodes>
          <leafValues>
            7.0260220766067505e-01 2.0715631544589996e-02</leafValues></_>
        <_>
          <internalNodes>
            0 -1 18 5.1705467700958252e-01</internalNodes>
          <leafValues>
            -7.6995268464088440e-02 8.6924207210540771e-01</leafValues></_>
        <_>
          <internalNodes>
            0 -1 428 7.0320025086402893e-02</internalNodes>
          <leafValues>
            -1.4756262302398682e-01 7.3779845237731934e-01</leafValues></_>
        <_>
          <internalNodes>
            0 -1 8 -5.5985353887081146e-02</internalNodes>
          <leafValues>
            5.3419488668441772e-01 -1.5331654250621796e-01</leafValues></_>
        <_>
          <internalNodes>
            0 -1 534 4.5623583719134331e-04</internalNodes>
          <leafValues>
            1.8050822615623474e-01 -4.7926539182662964e-01</leafValues></_>
        <_>
          <internalNodes>
            0 -1 467 7.7589612919837236e-04</internalNodes>
          <leafValues>
            1.3042125105857849e-01 -5.5173474550247192e-01</leafValues></_>
        <_>
          <internalNodes>
            0 -1 358 3.0204923823475838e-02</internalNodes>
          <leafValues>
            -1.2922036647796631e-01 6.3289815187454224e-01</leafValues></_>
        <_>
          <internalNodes>
            0 -1 68 4.2441612482070923e-01</internalNodes>
          <leafValues>
            -5.0760511308908463e-02 9.3699824810028076e-01</leafValues></_>
        <_>
          <internalNodes>
            0 -1 322 -6.9730937480926514e-02</internalNodes>
          <leafValues>
            5.5858558416366577e-01 -1.5429148077964783e-01</leafValues></_>
        <_>
          <internalNodes>
            0 -1 226 6.5346136689186096e-02</internalNodes>
          <leafValues>
            -1.0484080761671066e-01 7.1255743503570557e-01</leafValues></_>
        <_>
          <internalNodes>
            0 -1 654 -7.0091872476041317e-04</internalNodes>
          <leafValues>
            -3.3074367046356201e-01 2.1477216482162476e-01</leafValues></_>
        <_>
          <internalNodes>
            0 -1 531 -8.8183365762233734e-02</internalNodes>
          <leafValues>
            6.7718040943145752e-01 -1.0228834301233292e-01</leafValues></_>
        <_>
          <internalNodes>
            0 -1 28 1.9593095779418945e-01</internalNodes>
          <leafValues>
            -9.9952928721904755e-02 6.9286888837814331e-01</leafValues></_>
        <_>
          <internalNodes>
            0 -1 343 -1.0054987855255604e-02</internalNodes>
          <leafValues>
            3.1315124034881592e-01 -2.4496638774871826e-01</leafValues></_>
        <_>
          <internalNodes>
            0 -1 201 -8.3416044712066650e-02</internalNodes>
          <leafValues>
            7.4195373058319092e-01 -9.5631271600723267e-02</leafValues></_>
        <_>
          <internalNodes>
            0 -1 572 -2.0628407946787775e-04</internalNodes>
          <leafValues>
            -3.2048046588897705e-01 2.3830746114253998e-01</leafValues></_>
        <_>
          <internalNodes>
            0 -1 422 -2.2132502868771553e-02</internalNodes>
          <leafValues>
            3.9190813899040222e-01 -1.7519046366214752e-01</leafValues></_>
        <_>
          <internalNodes>
            0 -1 729 6.5528613049536943e-04</internalNodes>
          <leafValues>
            1.5231861174106598e-01 -4.7770014405250549e-01</leafValues></_>
        <_>
          <internalNodes>
            0 -1 729 -3.4035212593153119e-04</internalNodes>
          <leafValues>
            -3.2424351572990417e-01 1.9893895089626312e-01</leafValues></_>
        <_>
          <internalNodes>
            0 -1 33 3.4723335504531860e-01</internalNodes>
          <leafValues>
            -9.7076013684272766e-02 7.5125676393508911e-01</leafValues></_>
        <_>
          <internalNodes>
            0 -1 242 -2.5045385584235191e-02</internalNodes>
          <leafValues>
            3.4953171014785767e-01 -2.3641958832740784e-01</leafValues></_>
        <_>
          <internalNodes>
            0 -1 538 3.2925927080214024e-03</internalNodes>
          <leafValues>
            -2.0194318890571594e-01 3.9172843098640442e-01</leafValues></_>
        <_>
          <internalNodes>
            0 -1 286 2.6500141248106956e-03</internalNodes>
          <leafValues>
            1.8450169265270233e-01 -4.2016193270683289e-01</leafValues></_>
        <_>
          <internalNodes>
            0 -1 321 1.2990264222025871e-03</internalNodes>
          <leafValues>
            1.2200281769037247e-01 -5.4908126592636108e-01</leafValues></_></weakClassifiers></_>
    <!-- stage 2 -->
    <_>
      <maxWeakCount>27</maxWeakCount>
      <stageThreshold>-1.0259807109832764e+00</stageThreshold>
      <weakClassifiers>
        <_>
          <internalNodes>
            0 -1 202 3.0460795760154724e-01</internalNodes>
          <leafValues>
            1.0703364014625549e-01 8.9041095972061157e-01</leafValues></_>
        <_>
          <internalNodes>
            0 -1 25 5.2124875783920288e-01</internalNodes>
          <leafValues>
            -4.6834796667098999e-02 8.4685945510864258e-01</leafValues></_>
        <_>
          <internalNodes>
            0 -1 337 1.1851701140403748e-01</internalNodes>
          <leafValues>
            -1.5817251801490784e-01 7.5296711921691895e-01</leafValues></_>
        <_>
          <internalNodes>
            0 -1 325 -2.7427950408309698e-04</internalNodes>
          <leafValues>
            -3.0309820175170898e-01 2.1959894895553589e-01</leafValues></_>
        <_>
          <internalNodes>
            0 -1 686 5.2786211017519236e-04</internalNodes>
          <leafValues>
            1.0389435291290283e-01 -4.5489346981048584e-01</leafValues></_>
        <_>
          <internalNodes>
            0 -1 569 -2.4594444781541824e-02</internalNodes>
          <leafValues>
            -6.6903984546661377e-01 9.1472975909709930e-02</leafValues></_>
        <_>
          <internalNodes>
            0 -1 163 -5.8689370751380920e-02</internalNodes>
          <leafValues>
            4.0284186601638794e-01 -1.4249069988727570e-01</leafValues></_>
        <_>
          <internalNodes>
            0 -1 121 -5.9056160971522331e-03</internalNodes>
          <leafValues>
            3.1218010187149048e-01 -2.5522592663764954e-01</leafValues></_>
        <_>
          <internalNodes>
            0 -1 233 2.8158760070800781e-01</internalNodes>
          <leafValues>
            -1.1552232503890991e-01 7.4628990888595581e-01</leafValues></_>
        <_>
          <internalNodes>
            0 -1 366 2.4010863155126572e-02</internalNodes>
          <leafValues>
            -1.1631587147712708e-01 5.6088882684707642e-01</leafValues></_>
        <_>
          <internalNodes>
            0 -1 347 3.4566139220260084e-04</internalNodes>
          <leafValues>
            1.9576966762542725e-01 -3.8145995140075684e-01</leafValues></_>
        <_>
          <internalNodes>
            0 -1 204 6.3749894499778748e-02</internalNodes>
          <leafValues>
            -1.6526928544044495e-01 4.2022931575775146e-01</leafValues></_>
        <_>
          <internalNodes>
            0 -1 173 4.9210097640752792e-02</internalNodes>
          <leafValues>
            -1.1441989243030548e-01 6.6944849491119385e-01</leafValues></_>
        <_>
          <internalNodes>
            0 -1 63 1.0034439153969288e-02</internalNodes>
          <leafValues>
            -1.1948843300342560e-01 3.9022785425186157e-01</leafValues></_>
        <_>
          <internalNodes>
            0 -1 79 -5.0936105253640562e-05</internalNodes>
          <leafValues>
            -2.7835583686828613e-01 2.0875193178653717e-01</leafValues></_>
        <_>
          <internalNodes>
            0 -1 644 -3.4927274100482464e-04</internalNodes>
          <leafValues>
            -3.3721530437469482e-01 1.7925956845283508e-01</leafValues></_>
        <_>
          <internalNodes>
            0 -1 448 -2.8820885345339775e-02</internalNodes>
          <leafValues>
            3.5402327775955200e-01 -1.9731259346008301e-01</leafValues></_>
        <_>
          <internalNodes>
            0 -1 394 1.6082875430583954e-02</internalNodes>
          <leafValues>
            -1.9419883191585541e-01 3.7068346142768860e-01</leafValues></_>
        <_>
          <internalNodes>
            0 -1 256 -5.1603153347969055e-02</internalNodes>
          <leafValues>
            6.7729145288467407e-01 -8.5210032761096954e-02</leafValues></_>
        <_>
          <internalNodes>
            0 -1 298 2.7256668545305729e-04</internalNodes>
          <leafValues>
            1.8401546776294708e-01 -3.5756835341453552e-01</leafValues></_>
        <_>
          <internalNodes>
            0 -1 176 -6.6556562669575214e-03</internalNodes>
          <leafValues>
            2.7183526754379272e-01 -2.1799081563949585e-01</leafValues></_>
        <_>
          <internalNodes>
            0 -1 301 1.7405324615538120e-04</internalNodes>
          <leafValues>
            2.1344535052776337e-01 -3.0346417427062988e-01</leafValues></_>
        <_>
          <internalNodes>
            0 -1 130 -1.1127442849101499e-04</internalNodes>
          <leafValues>
            -3.0147537589073181e-01 1.8165311217308044e-01</leafValues></_>
        <_>
          <internalNodes>
            0 -1 623 -1.8911284860223532e-04</internalNodes>
          <leafValues>
            -3.0670315027236938e-01 1.7443741858005524e-01</leafValues></_>
        <_>
          <internalNodes>
            0 -1 182 1.2655436992645264e-01</internalNodes>
          <leafValues>
            -5.7196401059627533e-02 9.1254425048828125e-01</leafValues></_>
        <_>
          <internalNodes>
            0 -1 214 -2.2398207336664200e-02</internalNodes>
          <leafValues>
            -6.7196887731552124e-01 9.6084885299205780e-02</leafValues></_>
        <_>
          <internalNodes>
            0 -1 657 3.3520001918077469e-02</internalNodes>
          <leafValues>
            -8.6354933679103851e-02 6.9804692268371582e-01</leafValues></_></weakClassifiers></_>
    <!-- stage 3 -->
    <_>
      <maxWeakCount>36</maxWeakCount>
      <stageThreshold>-8.7677603960037231e-01</stageThreshold>
      <weakClassifiers>
        <_>
          <internalNodes>
            0 -1 72 6.1732578277587891e-01</internalNodes>
          <leafValues>
            1.3545522093772888e-01 8.7148594856262207e-01</leafValues></_>
        <_>
          <internalNodes>
            0 -1 67 3.6883893609046936e-01</internalNodes>
          <leafValues>
            -7.1671232581138611e-02 6.4380705356597900e-01</leafValues></_>
        <_>
          <internalNodes>
            0 -1 126 -1.0570786253083497e-04</internalNodes>
          <leafValues>
            -2.9687929153442383e-01 1.9142633676528931e-01</leafValues></_>
        <_>
          <internalNodes>
            0 -1 126 4.5517639955505729e-04</internalNodes>
          <leafValues>
            1.2085980176925659e-01 -3.9206796884536743e-01</leafValues></_>
        <_>
          <internalNodes>
            0 -1 697 4.3882158934138715e-05</internalNodes>
          <leafValues>
            2.0642147958278656e-01 -2.5895333290100098e-01</leafValues></_>
        <_>
          <internalNodes>
            0 -1 384 -4.6772517263889313e-02</internalNodes>
          <leafValues>
            4.3629467487335205e-01 -1.3140358030796051e-01</leafValues></_>
        <_>
          <internalNodes>
            0 -1 529 6.7639485001564026e-02</internalNodes>
          <leafValues>
            -7.3567703366279602e-02 6.7926710844039917e-01</leafValues></_>
        <_>
          <internalNodes>
            0 -1 207 3.8675099611282349e-02</internalNodes>
          <leafValues>
            -1.7861095070838928e-01 3.2409748435020447e-01</leafValues></_>
        <_>
          <internalNodes>
            0 -1 299 -1.4801298675592989e-04</internalNodes>
          <leafValues>
            -2.9674276709556580e-01 1.8747554719448090e-01</leafValues></_>
        <_>
          <internalNodes>
            0 -1 177 1.1397032439708710e-01</internalNodes>
          <leafValues>
            5.6351937353610992e-02 -8.9117598533630371e-01</leafValues></_>
        <_>
          <internalNodes>
            0 -1 10 7.6903901062905788e-03</internalNodes>
          <leafValues>
            -1.0494306683540344e-01 5.2226501703262329e-01</leafValues></_>
        <_>
          <internalNodes>
            0 -1 299 6.2756414990872145e-04</internalNodes>
          <leafValues>
            1.3097414374351501e-01 -3.8863268494606018e-01</leafValues></_>
        <_>
          <internalNodes>
            0 -1 82 9.7694788128137589e-03</internalNodes>
          <leafValues>
            -9.0200074017047882e-02 5.2145922183990479e-01</leafValues></_>
        <_>
          <internalNodes>
            0 -1 125 -4.7033878217916936e-05</internalNodes>
          <leafValues>
            -2.5991702079772949e-01 1.8472398817539215e-01</leafValues></_>
        <_>
          <internalNodes>
            0 -1 730 5.2966438233852386e-03</internalNodes>
          <leafValues>
            -8.1234991550445557e-02 5.1221621036529541e-01</leafValues></_>
        <_>
          <internalNodes>
            0 -1 181 -2.2053960128687322e-04</internalNodes>
          <leafValues>
            -2.4536097049713135e-01 1.7921003699302673e-01</leafValues></_>
        <_>
          <internalNodes>
            0 -1 502 7.5715109705924988e-03</internalNodes>
          <leafValues>
            -8.0753520131111145e-02 6.4989811182022095e-01</leafValues></_>
        <_>
          <internalNodes>
            0 -1 184 -2.3454154143109918e-04</internalNodes>
          <leafValues>
            -2.9383316636085510e-01 1.8023189902305603e-01</leafValues></_>
        <_>
          <internalNodes>
            0 -1 460 2.5557741522789001e-02</internalNodes>
          <leafValues>
            7.6095640659332275e-02 -7.1762311458587646e-01</leafValues></_>
        <_>
          <internalNodes>
            0 -1 74 3.7210839800536633e-03</internalNodes>
          <leafValues>
            -7.2096891701221466e-02 7.6972818374633789e-01</leafValues></_>
        <_>
          <internalNodes>
            0 -1 436 1.0655529797077179e-02</internalNodes>
          <leafValues>
            1.2094861268997192e-01 -4.2028468847274780e-01</leafValues></_>
        <_>
          <internalNodes>
            0 -1 167 2.6876423507928848e-02</internalNodes>
          <leafValues>
            1.5754048526287079e-01 -2.8831151127815247e-01</leafValues></_>
        <_>
          <internalNodes>
            0 -1 478 -5.3733590990304947e-02</internalNodes>
          <leafValues>
            5.0256967544555664e-01 -1.0580845922231674e-01</leafValues></_>
        <_>
          <internalNodes>
            0 -1 375 4.4457982294261456e-03</internalNodes>
          <leafValues>
            9.3319930136203766e-02 -5.4515641927719116e-01</leafValues></_>
        <_>
          <internalNodes>
            0 -1 42 -5.6946091353893280e-03</internalNodes>
          <leafValues>
            4.8164772987365723e-01 -9.8267674446105957e-02</leafValues></_>
        <_>
          <internalNodes>
            0 -1 344 -6.5544532844796777e-05</internalNodes>
          <leafValues>
            -2.5598376989364624e-01 1.8776310980319977e-01</leafValues></_>
        <_>
          <internalNodes>
            0 -1 387 -5.3080555517226458e-04</internalNodes>
          <leafValues>
            -3.5090324282646179e-01 1.2702529132366180e-01</leafValues></_>
        <_>
          <internalNodes>
            0 -1 475 3.4141358919441700e-03</internalNodes>
          <leafValues>
            -9.5516420900821686e-02 4.9573373794555664e-01</leafValues></_>
        <_>
          <internalNodes>
            0 -1 195 2.4235593155026436e-02</internalNodes>
          <leafValues>
            -8.9456059038639069e-02 4.6085631847381592e-01</leafValues></_>
        <_>
          <internalNodes>
            0 -1 327 1.6691435128450394e-02</internalNodes>
          <leafValues>
            -1.4404900372028351e-01 3.1771072745323181e-01</leafValues></_>
        <_>
          <internalNodes>
            0 -1 415 -1.3475416228175163e-02</internalNodes>
          <leafValues>
            4.7696441411972046e-01 -9.3669034540653229e-02</leafValues></_>
        <_>
          <internalNodes>
            0 -1 735 4.2845122516155243e-02</internalNodes>
          <leafValues>
            -5.1187090575695038e-02 8.5762602090835571e-01</leafValues></_>
        <_>
          <internalNodes>
            0 -1 133 7.4516370892524719e-02</internalNodes>
          <leafValues>
            -1.6026234626770020e-01 3.2763481140136719e-01</leafValues></_>
        <_>
          <internalNodes>
            0 -1 364 -1.4538664370775223e-02</internalNodes>
          <leafValues>
            3.7951049208641052e-01 -1.5705625712871552e-01</leafValues></_>
        <_>
          <internalNodes>
            0 -1 601 -1.5549987438134849e-04</internalNodes>
          <leafValues>
            -2.8325060009956360e-01 1.7826843261718750e-01</leafValues></_>
        <_>
          <internalNodes>
            0 -1 199 -2.8001379687339067e-03</internalNodes>
          <leafValues>
            5.1906949281692505e-01 -9.6623256802558899e-02</leafValues></_></weakClassifiers></_>
    <!-- stage 4 -->
    <_>
      <maxWeakCount>33</maxWeakCount>
      <stageThreshold>-9.8928481340408325e-01</stageThreshold>
      <weakClassifiers>
        <_>
          <internalNodes>
            0 -1 403 -2.1624632179737091e-02</internalNodes>
          <leafValues>
            -4.9700599908828735e-01 3.3705511689186096e-01</leafValues></_>
        <_>
          <internalNodes>
            0 -1 489 -2.2883934900164604e-02</internalNodes>
          <leafValues>
            -6.8667405843734741e-01 1.0141313076019287e-01</leafValues></_>
        <_>
          <internalNodes>
            0 -1 162 3.3267763257026672e-01</internalNodes>
          <leafValues>
            -8.6577400565147400e-02 7.8899788856506348e-01</leafValues></_>
        <_>
          <internalNodes>
            0 -1 111 1.3751596212387085e-01</internalNodes>
          <leafValues>
            -1.3732045888900757e-01 5.6845611333847046e-01</leafValues></_>
        <_>
          <internalNodes>
            0 -1 542 -9.8007507622241974e-03</internalNodes>
          <leafValues>
            -4.4599378108978271e-01 1.4090344309806824e-01</leafValues></_>
        <_>
          <internalNodes>
            0 -1 6 3.2493782043457031e-01</internalNodes>
          <leafValues>
            9.0103931725025177e-02 -7.8835171461105347e-01</leafValues></_>
        <_>
          <internalNodes>
            0 -1 732 -2.3911078460514545e-03</internalNodes>
          <leafValues>
            7.7039599418640137e-01 -7.7827095985412598e-02</leafValues></_>
        <_>
          <internalNodes>
            0 -1 437 -2.2922106087207794e-02</internalNodes>
          <leafValues>
            4.4236579537391663e-01 -1.2565404176712036e-01</leafValues></_>
        <_>
          <internalNodes>
            0 -1 435 3.2335408031940460e-02</internalNodes>
          <leafValues>
            -1.6840805113315582e-01 3.8618940114974976e-01</leafValues></_>
        <_>
          <internalNodes>
            0 -1 409 1.9156072288751602e-02</internalNodes>
          <leafValues>
            4.8291228711605072e-02 -6.9200724363327026e-01</leafValues></_>
        <_>
          <internalNodes>
            0 -1 556 -1.0404661588836461e-04</internalNodes>
          <leafValues>
            -3.0658274888992310e-01 1.7979574203491211e-01</leafValues></_>
        <_>
          <internalNodes>
            0 -1 568 1.2594890594482422e-01</internalNodes>
          <leafValues>
            1.1536711454391479e-01 -4.7932446002960205e-01</leafValues></_>
        <_>
          <internalNodes>
            0 -1 424 2.8924127109348774e-03</internalNodes>
          <leafValues>
            -9.0468637645244598e-02 6.6633355617523193e-01</leafValues></_>
        <_>
          <internalNodes>
            0 -1 610 3.0074696987867355e-03</internalNodes>
          <leafValues>
            -4.5172005891799927e-02 9.1630017757415771e-01</leafValues></_>
        <_>
          <internalNodes>
            0 -1 388 -9.7650084644556046e-03</internalNodes>
          <leafValues>
            3.5327574610710144e-01 -1.4456139504909515e-01</leafValues></_>
        <_>
          <internalNodes>
            0 -1 506 -2.9564023017883301e-02</internalNodes>
          <leafValues>
            4.8723393678665161e-01 -1.0254880785942078e-01</leafValues></_>
        <_>
          <internalNodes>
            0 -1 420 1.3190206140279770e-02</internalNodes>
          <leafValues>
            -1.3674195110797882e-01 3.8196882605552673e-01</leafValues></_>
        <_>
          <internalNodes>
            0 -1 88 4.1657119989395142e-02</internalNodes>
          <leafValues>
            -1.6186656057834625e-01 3.5918164253234863e-01</leafValues></_>
        <_>
          <internalNodes>
            0 -1 252 3.0852325260639191e-02</internalNodes>
          <leafValues>
            -9.3079559504985809e-02 6.2414187192916870e-01</leafValues></_>
        <_>
          <internalNodes>
            0 -1 446 -2.4411916732788086e-02</internalNodes>
          <leafValues>
            -9.7815412282943726e-01 7.1514323353767395e-02</leafValues></_>
        <_>
          <internalNodes>
            0 -1 469 -5.4192647803574800e-04</internalNodes>
          <leafValues>
            -4.1071084141731262e-01 1.1585243046283722e-01</leafValues></_>
        <_>
          <internalNodes>
            0 -1 677 -8.6163476225920022e-05</internalNodes>
          <leafValues>
            -2.6387441158294678e-01 1.9603505730628967e-01</leafValues></_>
        <_>
          <internalNodes>
            0 -1 341 -3.5772793926298618e-03</internalNodes>
          <leafValues>
            8.0962979793548584e-01 -6.3388265669345856e-02</leafValues></_>
        <_>
          <internalNodes>
            0 -1 451 2.3567723110318184e-03</internalNodes>
          <leafValues>
            -5.0279185175895691e-02 8.1890535354614258e-01</leafValues></_>
        <_>
          <internalNodes>
            0 -1 567 7.0090601220726967e-03</internalNodes>
          <leafValues>
            1.8602658808231354e-01 -2.9278838634490967e-01</leafValues></_>
        <_>
          <internalNodes>
            0 -1 544 -4.3160080909729004e-02</internalNodes>
          <leafValues>
            6.0850620269775391e-01 -9.7396537661552429e-02</leafValues></_>
        <_>
          <internalNodes>
            0 -1 310 1.8859554082155228e-02</internalNodes>
          <leafValues>
            1.1583937704563141e-01 -4.8908454179763794e-01</leafValues></_>
        <_>
          <internalNodes>
            0 -1 699 -2.1151318214833736e-03</internalNodes>
          <leafValues>
            5.7883167266845703e-01 -8.8310614228248596e-02</leafValues></_>
        <_>
          <internalNodes>
            0 -1 693 -1.8475716933608055e-04</internalNodes>
          <leafValues>
            -2.7252647280693054e-01 1.9474506378173828e-01</leafValues></_>
        <_>
          <internalNodes>
            0 -1 215 -5.4833937610965222e-05</internalNodes>
          <leafValues>
            -3.1475678086280823e-01 1.8009491264820099e-01</leafValues></_>
        <_>
          <internalNodes>
            0 -1 584 -1.7159024253487587e-02</internalNodes>
          <leafValues>
            -6.4332556724548340e-01 8.4545135498046875e-02</leafValues></_>
        <_>
          <internalNodes>
            0 -1 259 2.7999689802527428e-02</internalNodes>
          <leafValues>
            -1.0278040170669556e-01 5.7571208477020264e-01</leafValues></_>
        <_>
          <internalNodes>
            0 -1 379 1.1028582230210304e-03</internalNodes>
          <leafValues>
            -1.0920061916112900e-01 5.1478105783462524e-01</leafValues></_></weakClassifiers></_>
    <!-- stage 5 -->
    <_>
      <maxWeakCount>26</maxWeakCount>
      <stageThreshold>-9.3414229154586792e-01</stageThreshold>
      <weakClassifiers>
        <_>
          <internalNodes>
            0 -1 17 7.0507049560546875e-01</internalNodes>
          <leafValues>
            1.4007490873336792e-01 8.0377358198165894e-01</leafValues></_>
        <_>
          <internalNodes>
            0 -1 710 2.7402506675571203e-03</internalNodes>
          <leafValues>
            -5.1957689225673676e-02 8.2564330101013184e-01</leafValues></_>
        <_>
          <internalNodes>
            0 -1 171 -1.3311018119566143e-04</internalNodes>
          <leafValues>
            -3.5420337319374084e-01 1.7134317755699158e-01</leafValues></_>
        <_>
          <internalNodes>
            0 -1 373 2.8869193047285080e-03</internalNodes>
          <leafValues>
            -6.4156100153923035e-02 8.5386723279953003e-01</leafValues></_>
        <_>
          <internalNodes>
            0 -1 9 2.8881644830107689e-03</internalNodes>
          <leafValues>
            -7.6995141804218292e-02 8.2808399200439453e-01</leafValues></_>
        <_>
          <internalNodes>
            0 -1 285 -1.0907462274190038e-04</internalNodes>
          <leafValues>
            -2.5862106680870056e-01 2.2168016433715820e-01</leafValues></_>
        <_>
          <internalNodes>
            0 -1 21 2.8278650715947151e-03</internalNodes>
          <leafValues>
            -8.7458647787570953e-02 7.6421386003494263e-01</leafValues></_>
        <_>
          <internalNodes>
            0 -1 521 2.1515335538424551e-04</internalNodes>
          <leafValues>
            1.9929186999797821e-01 -3.3339253067970276e-01</leafValues></_>
        <_>
          <internalNodes>
            0 -1 22 1.9021257758140564e-03</internalNodes>
          <leafValues>
            -9.0601570904254913e-02 7.2085547447204590e-01</leafValues></_>
        <_>
          <internalNodes>
            0 -1 25 5.3376662731170654e-01</internalNodes>
          <leafValues>
            -5.6905291974544525e-02 7.9992502927780151e-01</leafValues></_>
        <_>
          <internalNodes>
            0 -1 342 -1.6060069203376770e-02</internalNodes>
          <leafValues>
            2.9916441440582275e-01 -2.1171478927135468e-01</leafValues></_>
        <_>
          <internalNodes>
            0 -1 35 -4.4901087880134583e-02</internalNodes>
          <leafValues>
            -7.1933627128601074e-01 1.0379619896411896e-01</leafValues></_>
        <_>
          <internalNodes>
            0 -1 264 -1.3598315126728266e-04</internalNodes>
          <leafValues>
            -3.2857316732406616e-01 1.7818044126033783e-01</leafValues></_>
        <_>
          <internalNodes>
            0 -1 38 1.3362549245357513e-02</internalNodes>
          <leafValues>
            1.0008088499307632e-01 -6.6276788711547852e-01</leafValues></_>
        <_>
          <internalNodes>
            0 -1 715 1.5109570231288671e-03</internalNodes>
          <leafValues>
            -1.2796272337436676e-01 5.2555626630783081e-01</leafValues></_>
        <_>
          <internalNodes>
            0 -1 319 -2.8562512248754501e-02</internalNodes>
          <leafValues>
            -7.3170220851898193e-01 9.2331074178218842e-02</leafValues></_>
        <_>
          <internalNodes>
            0 -1 143 -1.2317758053541183e-02</internalNodes>
          <leafValues>
            4.3267068266868591e-01 -1.5964850783348083e-01</leafValues></_>
        <_>
          <internalNodes>
            0 -1 713 -3.5328995436429977e-03</internalNodes>
          <leafValues>
            6.4498853683471680e-01 -9.4254761934280396e-02</leafValues></_>
        <_>
          <internalNodes>
            0 -1 54 2.5061964988708496e-03</internalNodes>
          <leafValues>
            -8.4697484970092773e-02 6.6007864475250244e-01</leafValues></_>
        <_>
          <internalNodes>
            0 -1 112 -1.7765608429908752e-01</internalNodes>
          <leafValues>
            8.3570301532745361e-01 -6.1361040920019150e-02</leafValues></_>
        <_>
          <internalNodes>
            0 -1 147 -9.1564461588859558e-02</internalNodes>
          <leafValues>
            3.9163586497306824e-01 -1.6747717559337616e-01</leafValues></_>
        <_>
          <internalNodes>
            0 -1 94 4.6594385057687759e-02</internalNodes>
          <leafValues>
            -1.0982351005077362e-01 5.5913072824478149e-01</leafValues></_>
        <_>
          <internalNodes>
            0 -1 714 2.0495369099080563e-03</internalNodes>
          <leafValues>
            -9.9269613623619080e-02 6.2580585479736328e-01</leafValues></_>
        <_>
          <internalNodes>
            0 -1 61 -1.7715040594339371e-02</internalNodes>
          <leafValues>
            -4.9783506989479065e-01 1.3845793902873993e-01</leafValues></_>
        <_>
          <internalNodes>
            0 -1 525 -1.7864767462015152e-02</internalNodes>
          <leafValues>
            -8.6138361692428589e-01 6.5845780074596405e-02</leafValues></_>
        <_>
          <internalNodes>
            0 -1 93 -3.0208040698198602e-05</internalNodes>
          <leafValues>
            -3.1604856252670288e-01 1.6553135216236115e-01</leafValues></_></weakClassifiers></_>
    <!-- stage 6 -->
    <_>
      <maxWeakCount>25</maxWeakCount>
      <stageThreshold>-1.1746952533721924e+00</stageThreshold>
      <weakClassifiers>
        <_>
          <internalNodes>
            0 -1 545 1.7842180095613003e-03</internalNodes>
          <leafValues>
            1.3677811622619629e-01 7.7464789152145386e-01</leafValues></_>
        <_>
          <internalNodes>
            0 -1 50 2.8731389902532101e-03</internalNodes>
          <leafValues>
            -5.5333640426397324e-02 8.9915841817855835e-01</leafValues></_>
        <_>
          <internalNodes>
            0 -1 51 1.4704469358548522e-03</internalNodes>
          <leafValues>
            -1.2144153565168381e-01 7.0971912145614624e-01</leafValues></_>
        <_>
          <internalNodes>
            0 -1 443 2.5222853291779757e-03</internalNodes>
          <leafValues>
            -5.2063532173633575e-02 8.0910360813140869e-01</leafValues></_>
        <_>
          <internalNodes>
            0 -1 227 -1.4830054715275764e-03</internalNodes>
          <leafValues>
            8.2062143087387085e-01 -8.0778092145919800e-02</leafValues></_>
        <_>
          <internalNodes>
            0 -1 190 -4.5207198709249496e-03</internalNodes>
          <leafValues>
            6.3679617643356323e-01 -1.0875932127237320e-01</leafValues></_>
        <_>
          <internalNodes>
            0 -1 720 -1.4932375634089112e-03</internalNodes>
          <leafValues>
            8.1014823913574219e-01 -7.9847507178783417e-02</leafValues></_>
        <_>
          <internalNodes>
            0 -1 559 1.2125044595450163e-03</internalNodes>
          <leafValues>
            -8.3530731499195099e-02 7.1851557493209839e-01</leafValues></_>
        <_>
          <internalNodes>
            0 -1 429 3.2145888544619083e-03</internalNodes>
          <leafValues>
            -6.5286129713058472e-02 8.6512088775634766e-01</leafValues></_>
        <_>
          <internalNodes>
            0 -1 566 -2.6757097803056240e-03</internalNodes>
          <leafValues>
            8.8170683383941650e-01 -6.0957085341215134e-02</leafValues></_>
        <_>
          <internalNodes>
            0 -1 104 -1.4999366831034422e-03</internalNodes>
          <leafValues>
            7.7351772785186768e-01 -7.6292529702186584e-02</leafValues></_>
        <_>
          <internalNodes>
            0 -1 465 -1.1412117164582014e-03</internalNodes>
          <leafValues>
            6.3291198015213013e-01 -1.0406380891799927e-01</leafValues></_>
        <_>
          <internalNodes>
            0 -1 711 -8.6635802290402353e-05</internalNodes>
          <leafValues>
            -3.2166185975074768e-01 2.2971241176128387e-01</leafValues></_>
        <_>
          <internalNodes>
            0 -1 37 -2.4732337333261967e-03</internalNodes>
          <leafValues>
            8.1419861316680908e-01 -8.6173854768276215e-02</leafValues></_>
        <_>
          <internalNodes>
            0 -1 157 1.0530028492212296e-01</internalNodes>
          <leafValues>
            -1.1495350301265717e-01 5.2701437473297119e-01</leafValues></_>
        <_>
          <internalNodes>
            0 -1 216 2.8231889009475708e-03</internalNodes>
          <leafValues>
            -8.1000350415706635e-02 8.0497992038726807e-01</leafValues></_>
        <_>
          <internalNodes>
            0 -1 539 -9.4656571745872498e-03</internalNodes>
          <leafValues>
            7.6605677604675293e-01 -6.8279966711997986e-02</leafValues></_>
        <_>
          <internalNodes>
            0 -1 151 -2.5486648082733154e-03</internalNodes>
          <leafValues>
            7.7918255329132080e-01 -7.5321413576602936e-02</leafValues></_>
        <_>
          <internalNodes>
            0 -1 374 -1.2901085428893566e-03</internalNodes>
          <leafValues>
            6.1057758331298828e-01 -1.0214326530694962e-01</leafValues></_>
        <_>
          <internalNodes>
            0 -1 196 -1.8307729624211788e-03</internalNodes>
          <leafValues>
            5.9379208087921143e-01 -1.0553386807441711e-01</leafValues></_>
        <_>
          <internalNodes>
            0 -1 100 1.6475992742925882e-03</internalNodes>
          <leafValues>
            -7.7681280672550201e-02 8.0717992782592773e-01</leafValues></_>
        <_>
          <internalNodes>
            0 -1 249 4.4624111615121365e-03</internalNodes>
          <leafValues>
            1.6736164689064026e-01 -4.7602823376655579e-01</leafValues></_>
        <_>
          <internalNodes>
            0 -1 494 9.7797587513923645e-02</internalNodes>
          <leafValues>
            -9.2957422137260437e-02 7.4735206365585327e-01</leafValues></_>
        <_>
          <internalNodes>
            0 -1 188 1.4329322148114443e-03</internalNodes>
          <leafValues>
            -7.0359423756599426e-02 7.6418542861938477e-01</leafValues></_>
        <_>
          <internalNodes>
            0 -1 700 -2.8165387921035290e-03</internalNodes>
          <leafValues>
            5.9901708364486694e-01 -9.3740828335285187e-02</leafValues></_></weakClassifiers></_>
    <!-- stage 7 -->
    <_>
      <maxWeakCount>40</maxWeakCount>
      <stageThreshold>-9.9344164133071899e-01</stageThreshold>
      <weakClassifiers>
        <_>
          <internalNodes>
            0 -1 48 2.8658183291554451e-03</internalNodes>
          <leafValues>
            1.2149532884359360e-01 6.0756498575210571e-01</leafValues></_>
        <_>
          <internalNodes>
            0 -1 20 6.0553216934204102e-01</internalNodes>
          <leafValues>
            -7.9295590519905090e-02 6.1038410663604736e-01</leafValues></_>
        <_>
          <internalNodes>
            0 -1 476 7.1458198130130768e-02</internalNodes>
          <leafValues>
            -1.4058135449886322e-01 3.5379859805107117e-01</leafValues></_>
        <_>
          <internalNodes>
            0 -1 681 -2.1464079327415675e-04</internalNodes>
          <leafValues>
            -2.9481741786003113e-01 1.6674658656120300e-01</leafValues></_>
        <_>
          <internalNodes>
            0 -1 43 -3.4980743657797575e-03</internalNodes>
          <leafValues>
            3.1651756167411804e-01 -1.8078383803367615e-01</leafValues></_>
        <_>
          <internalNodes>
            0 -1 605 -4.2389687150716782e-03</internalNodes>
          <leafValues>
            8.1406831741333008e-01 -3.5583533346652985e-02</leafValues></_>
        <_>
          <internalNodes>
            0 -1 712 -2.5161281228065491e-03</internalNodes>
          <leafValues>
            5.6714588403701782e-01 -8.3748385310173035e-02</leafValues></_>
        <_>
          <internalNodes>
            0 -1 267 3.1470570713281631e-02</internalNodes>
          <leafValues>
            9.6475288271903992e-02 -5.2927100658416748e-01</leafValues></_>
        <_>
          <internalNodes>
            0 -1 56 3.2183881849050522e-03</internalNodes>
          <leafValues>
            -9.4615176320075989e-02 4.5351427793502808e-01</leafValues></_>
        <_>
          <internalNodes>
            0 -1 13 -5.5515682697296143e-01</internalNodes>
          <leafValues>
            -8.7920612096786499e-01 5.4311547428369522e-02</leafValues></_>
        <_>
          <internalNodes>
            0 -1 641 -6.1104423366487026e-04</internalNodes>
          <leafValues>
            -2.5114312767982483e-01 1.7832273244857788e-01</leafValues></_>
        <_>
          <internalNodes>
            0 -1 547 7.7209202572703362e-03</internalNodes>
          <leafValues>
            -1.1206201463937759e-01 4.5098522305488586e-01</leafValues></_>
        <_>
          <internalNodes>
            0 -1 335 -4.0023986250162125e-02</internalNodes>
          <leafValues>
            3.6642363667488098e-01 -1.2436643987894058e-01</leafValues></_>
        <_>
          <internalNodes>
            0 -1 426 2.0067926496267319e-02</internalNodes>
          <leafValues>
            -1.3188140094280243e-01 4.1548603773117065e-01</leafValues></_>
        <_>
          <internalNodes>
            0 -1 656 -5.6907467544078827e-02</internalNodes>
          <leafValues>
            4.4264516234397888e-01 -9.6016325056552887e-02</leafValues></_>
        <_>
          <internalNodes>
            0 -1 424 -3.5665908362716436e-03</internalNodes>
          <leafValues>
            6.9945454597473145e-01 -5.1256354898214340e-02</leafValues></_>
        <_>
          <internalNodes>
            0 -1 152 1.2464066967368126e-03</internalNodes>
          <leafValues>
            -7.7318333089351654e-02 5.3018581867218018e-01</leafValues></_>
        <_>
          <internalNodes>
            0 -1 350 1.4556769281625748e-02</internalNodes>
          <leafValues>
            7.0592239499092102e-02 -7.1421951055526733e-01</leafValues></_>
        <_>
          <internalNodes>
            0 -1 31 3.9999401196837425e-03</internalNodes>
          <leafValues>
            -1.1524997651576996e-01 4.0533003211021423e-01</leafValues></_>
        <_>
          <internalNodes>
            0 -1 390 -1.3170031830668449e-02</internalNodes>
          <leafValues>
            -6.1165219545364380e-01 7.5260110199451447e-02</leafValues></_>
        <_>
          <internalNodes>
            0 -1 652 -1.0133944451808929e-02</internalNodes>
          <leafValues>
            2.6074385643005371e-01 -1.7245224118232727e-01</leafValues></_>
        <_>
          <internalNodes>
            0 -1 269 -4.6629349526483566e-05</internalNodes>
          <leafValues>
            -2.9126259684562683e-01 1.7340448498725891e-01</leafValues></_>
        <_>
          <internalNodes>
            0 -1 235 -1.6837954521179199e-02</internalNodes>
          <leafValues>
            3.8619449734687805e-01 -1.1878290027379990e-01</leafValues></_>
        <_>
          <internalNodes>
            0 -1 637 2.0699258893728256e-03</internalNodes>
          <leafValues>
            -6.0087177902460098e-02 7.2774690389633179e-01</leafValues></_>
        <_>
          <internalNodes>
            0 -1 131 -1.9759568385779858e-04</internalNodes>
          <leafValues>
            -3.1157386302947998e-01 1.6436710953712463e-01</leafValues></_>
        <_>
          <internalNodes>
            0 -1 706 3.1549206469208002e-03</internalNodes>
          <leafValues>
            -5.4825551807880402e-02 8.7460583448410034e-01</leafValues></_>
        <_>
          <internalNodes>
            0 -1 34 1.6232982277870178e-02</internalNodes>
          <leafValues>
            7.6785631477832794e-02 -7.2139734029769897e-01</leafValues></_>
        <_>
          <internalNodes>
            0 -1 23 -4.1848598048090935e-03</internalNodes>
          <leafValues>
            5.0652581453323364e-01 -1.0131148248910904e-01</leafValues></_>
        <_>
          <internalNodes>
            0 -1 659 7.5979894027113914e-03</internalNodes>
          <leafValues>
            8.2685343921184540e-02 -6.2677150964736938e-01</leafValues></_>
        <_>
          <internalNodes>
            0 -1 647 -1.6111801378428936e-03</internalNodes>
          <leafValues>
            5.7629817724227905e-01 -9.2318959534168243e-02</leafValues></_>
        <_>
          <internalNodes>
            0 -1 197 7.4623404070734978e-03</internalNodes>
          <leafValues>
            7.7001929283142090e-02 -7.2769761085510254e-01</leafValues></_>
        <_>
          <internalNodes>
            0 -1 246 -4.0355166420340538e-03</internalNodes>
          <leafValues>
            2.5942477583885193e-01 -2.0657889544963837e-01</leafValues></_>
        <_>
          <internalNodes>
            0 -1 499 -2.6289651170372963e-02</internalNodes>
          <leafValues>
            3.2124593853950500e-01 -1.5383034944534302e-01</leafValues></_>
        <_>
          <internalNodes>
            0 -1 669 3.8904003798961639e-02</internalNodes>
          <leafValues>
            -1.0427228361368179e-01 4.9636355042457581e-01</leafValues></_>
        <_>
          <internalNodes>
            0 -1 0 -2.5401286780834198e-02</internalNodes>
          <leafValues>
            5.3539639711380005e-01 -8.6984284222126007e-02</leafValues></_>
        <_>
          <internalNodes>
            0 -1 372 -1.3945586979389191e-03</internalNodes>
          <leafValues>
            3.7278437614440918e-01 -1.3278727233409882e-01</leafValues></_>
        <_>
          <internalNodes>
            0 -1 109 -1.6233902424573898e-02</internalNodes>
          <leafValues>
            -5.9321850538253784e-01 8.7290614843368530e-02</leafValues></_>
        <_>
          <internalNodes>
            0 -1 110 1.3558468222618103e-01</internalNodes>
          <leafValues>
            4.4752106070518494e-02 -1.</leafValues></_>
        <_>
          <internalNodes>
            0 -1 71 -1.1452842503786087e-02</internalNodes>
          <leafValues>
            6.8342453241348267e-01 -8.9519023895263672e-02</leafValues></_>
        <_>
          <internalNodes>
            0 -1 553 -3.0135668814182281e-02</internalNodes>
          <leafValues>
            4.1698756814002991e-01 -9.6463508903980255e-02</leafValues></_></weakClassifiers></_>
    <!-- stage 8 -->
    <_>
      <maxWeakCount>28</maxWeakCount>
      <stageThreshold>-9.7213166952133179e-01</stageThreshold>
      <weakClassifiers>
        <_>
          <internalNodes>
            0 -1 283 -2.1625241637229919e-01</internalNodes>
          <leafValues>
            -8.3999997377395630e-01 3.0360656976699829e-01</leafValues></_>
        <_>
          <internalNodes>
            0 -1 434 9.9968895316123962e-02</internalNodes>
          <leafValues>
            -7.1999572217464447e-02 6.8027794361114502e-01</leafValues></_>
        <_>
          <internalNodes>
            0 -1 257 4.4416390359401703e-02</internalNodes>
          <leafValues>
            -2.0781490206718445e-01 4.9764269590377808e-01</leafValues></_>
        <_>
          <internalNodes>
            0 -1 228 -1.4720926061272621e-02</internalNodes>
          <leafValues>
            4.0198850631713867e-01 -1.4917178452014923e-01</leafValues></_>
        <_>
          <internalNodes>
            0 -1 369 3.3110275864601135e-02</internalNodes>
          <leafValues>
            -1.2910613417625427e-01 6.0777044296264648e-01</leafValues></_>
        <_>
          <internalNodes>
            0 -1 552 -2.8208121657371521e-02</internalNodes>
          <leafValues>
            5.1195734739303589e-01 -1.3685095310211182e-01</leafValues></_>
        <_>
          <internalNodes>
            0 -1 419 -1.8275763839483261e-02</internalNodes>
          <leafValues>
            9.0123581886291504e-01 -7.6156951487064362e-02</leafValues></_>
        <_>
          <internalNodes>
            0 -1 389 -2.8311446309089661e-02</internalNodes>
          <leafValues>
            3.6715838313102722e-01 -1.4791819453239441e-01</leafValues></_>
        <_>
          <internalNodes>
            0 -1 118 -2.8995310887694359e-02</internalNodes>
          <leafValues>
            5.9187102317810059e-01 -8.4557399153709412e-02</leafValues></_>
        <_>
          <internalNodes>
            0 -1 441 1.4043755829334259e-02</internalNodes>
          <leafValues>
            -1.2013445794582367e-01 4.1841387748718262e-01</leafValues></_>
        <_>
          <internalNodes>
            0 -1 370 4.3957673013210297e-02</internalNodes>
          <leafValues>
            -9.1082111001014709e-02 5.9691464900970459e-01</leafValues></_>
        <_>
          <internalNodes>
            0 -1 549 -1.2651312863454223e-04</internalNodes>
          <leafValues>
            2.3131920397281647e-01 -2.4245785176753998e-01</leafValues></_>
        <_>
          <internalNodes>
            0 -1 166 -9.4068013131618500e-03</internalNodes>
          <leafValues>
            3.5793495178222656e-01 -1.5739807486534119e-01</leafValues></_>
        <_>
          <internalNodes>
            0 -1 117 9.4804158434271812e-03</internalNodes>
          <leafValues>
            -1.0881366580724716e-01 5.1045256853103638e-01</leafValues></_>
        <_>
          <internalNodes>
            0 -1 288 -7.7984493691474199e-04</internalNodes>
          <leafValues>
            -3.6667647957801819e-01 1.5009006857872009e-01</leafValues></_>
        <_>
          <internalNodes>
            0 -1 250 -6.7697013728320599e-03</internalNodes>
          <leafValues>
            4.4163677096366882e-01 -1.1035491526126862e-01</leafValues></_>
        <_>
          <internalNodes>
            0 -1 224 3.4236561506986618e-02</internalNodes>
          <leafValues>
            -9.7480177879333496e-02 5.4266917705535889e-01</leafValues></_>
        <_>
          <internalNodes>
            0 -1 694 -1.9426859216764569e-04</internalNodes>
          <leafValues>
            -2.9880276322364807e-01 1.7445263266563416e-01</leafValues></_>
        <_>
          <internalNodes>
            0 -1 280 7.9903140431270003e-04</internalNodes>
          <leafValues>
            -1.9130134582519531e-01 2.8845983743667603e-01</leafValues></_>
        <_>
          <internalNodes>
            0 -1 414 1.0903655551373959e-02</internalNodes>
          <leafValues>
            -7.0882417261600494e-02 7.6063108444213867e-01</leafValues></_>
        <_>
          <internalNodes>
            0 -1 284 1.7571881413459778e-02</internalNodes>
          <leafValues>
            -1.1901911348104477e-01 4.1199979186058044e-01</leafValues></_>
        <_>
          <internalNodes>
            0 -1 125 3.4737240639515221e-04</internalNodes>
          <leafValues>
            1.5302415192127228e-01 -3.4723749756813049e-01</leafValues></_>
        <_>
          <internalNodes>
            0 -1 704 2.9561560600996017e-02</internalNodes>
          <leafValues>
            -1.2058631330728531e-01 4.5623397827148438e-01</leafValues></_>
        <_>
          <internalNodes>
            0 -1 123 1.2879206240177155e-01</internalNodes>
          <leafValues>
            -9.1288752853870392e-02 5.2613133192062378e-01</leafValues></_>
        <_>
          <internalNodes>
            0 -1 253 2.9871419072151184e-02</internalNodes>
          <leafValues>
            -1.2261732667684555e-01 3.6220258474349976e-01</leafValues></_>
        <_>
          <internalNodes>
            0 -1 116 -9.3467593193054199e-02</internalNodes>
          <leafValues>
            8.2719743251800537e-01 -5.9534080326557159e-02</leafValues></_>
        <_>
          <internalNodes>
            0 -1 698 1.1561840772628784e-02</internalNodes>
          <leafValues>
            -8.8478885591030121e-02 4.9194577336311340e-01</leafValues></_>
        <_>
          <internalNodes>
            0 -1 645 -1.2221146374940872e-02</internalNodes>
          <leafValues>
            3.2511094212532043e-01 -1.3061608374118805e-01</leafValues></_></weakClassifiers></_>
    <!-- stage 9 -->
    <_>
      <maxWeakCount>33</maxWeakCount>
      <stageThreshold>-1.0108358860015869e+00</stageThreshold>
      <weakClassifiers>
        <_>
          <internalNodes>
            0 -1 270 9.0743124485015869e-02</internalNodes>
          <leafValues>
            1.5873016417026520e-01 8.4112149477005005e-01</leafValues></_>
        <_>
          <internalNodes>
            0 -1 399 -1.2861120012530591e-05</internalNodes>
          <leafValues>
            2.8324109315872192e-01 -1.8054610490798950e-01</leafValues></_>
        <_>
          <internalNodes>
            0 -1 398 1.3131468222127296e-05</internalNodes>
          <leafValues>
            -2.1042479574680328e-01 2.5967425107955933e-01</leafValues></_>
        <_>
          <internalNodes>
            0 -1 468 3.0796118080615997e-02</internalNodes>
          <leafValues>
            -1.4009289443492889e-01 5.0405198335647583e-01</leafValues></_>
        <_>
          <internalNodes>
            0 -1 397 -1.3038213182881009e-05</internalNodes>
          <leafValues>
            3.0902674794197083e-01 -2.3949311673641205e-01</leafValues></_>
        <_>
          <internalNodes>
            0 -1 371 -5.2420184016227722e-02</internalNodes>
          <leafValues>
            5.5951082706451416e-01 -1.2455738335847855e-01</leafValues></_>
        <_>
          <internalNodes>
            0 -1 331 2.2149283438920975e-02</internalNodes>
          <leafValues>
            -1.5604501962661743e-01 4.2683324217796326e-01</leafValues></_>
        <_>
          <internalNodes>
            0 -1 265 -1.3725018128752708e-02</internalNodes>
          <leafValues>
            -6.1559766530990601e-01 1.0706657916307449e-01</leafValues></_>
        <_>
          <internalNodes>
            0 -1 70 -9.4126455485820770e-02</internalNodes>
          <leafValues>
            7.1132087707519531e-01 -7.5822241604328156e-02</leafValues></_>
        <_>
          <internalNodes>
            0 -1 453 1.1234495788812637e-02</internalNodes>
          <leafValues>
            -7.9150788486003876e-02 6.2320512533187866e-01</leafValues></_>
        <_>
          <internalNodes>
            0 -1 149 1.2189393863081932e-02</internalNodes>
          <leafValues>
            -8.5787490010261536e-02 6.3574284315109253e-01</leafValues></_>
        <_>
          <internalNodes>
            0 -1 154 -1.2127742593293078e-05</internalNodes>
          <leafValues>
            3.2172998785972595e-01 -1.6897942125797272e-01</leafValues></_>
        <_>
          <internalNodes>
            0 -1 449 1.2745460480800830e-05</internalNodes>
          <leafValues>
            -2.2294287383556366e-01 2.4491621553897858e-01</leafValues></_>
        <_>
          <internalNodes>
            0 -1 500 2.8499993495643139e-03</internalNodes>
          <leafValues>
            -9.5973543822765350e-02 6.4614731073379517e-01</leafValues></_>
        <_>
          <internalNodes>
            0 -1 485 1.8253743648529053e-02</internalNodes>
          <leafValues>
            1.5294982492923737e-01 -4.0762802958488464e-01</leafValues></_>
        <_>
          <internalNodes>
            0 -1 238 3.0045911669731140e-02</internalNodes>
          <leafValues>
            -1.1846030503511429e-01 5.0871449708938599e-01</leafValues></_>
        <_>
          <internalNodes>
            0 -1 511 -2.8516999445855618e-03</internalNodes>
          <leafValues>
            6.5687906742095947e-01 -6.6643074154853821e-02</leafValues></_>
        <_>
          <internalNodes>
            0 -1 615 7.4465768411755562e-03</internalNodes>
          <leafValues>
            -6.9080092012882233e-02 6.1860620975494385e-01</leafValues></_>
        <_>
          <internalNodes>
            0 -1 442 3.7334993481636047e-02</internalNodes>
          <leafValues>
            9.1065898537635803e-02 -6.2607055902481079e-01</leafValues></_>
        <_>
          <internalNodes>
            0 -1 512 4.1446639224886894e-03</internalNodes>
          <leafValues>
            -1.0192868113517761e-01 5.4858106374740601e-01</leafValues></_>
        <_>
          <internalNodes>
            0 -1 630 -1.2219671159982681e-02</internalNodes>
          <leafValues>
            6.2088865041732788e-01 -7.2798252105712891e-02</leafValues></_>
        <_>
          <internalNodes>
            0 -1 433 -8.5993342101573944e-02</internalNodes>
          <leafValues>
            7.8066539764404297e-01 -4.5992422848939896e-02</leafValues></_>
        <_>
          <internalNodes>
            0 -1 591 -3.7501479964703321e-03</internalNodes>
          <leafValues>
            7.8687572479248047e-01 -4.2232438921928406e-02</leafValues></_>
        <_>
          <internalNodes>
            0 -1 198 1.3278151527629234e-05</internalNodes>
          <leafValues>
            -1.8989413976669312e-01 2.4643689393997192e-01</leafValues></_>
        <_>
          <internalNodes>
            0 -1 193 -2.7942916378378868e-02</internalNodes>
          <leafValues>
            5.7383978366851807e-01 -8.9974306523799896e-02</leafValues></_>
        <_>
          <internalNodes>
            0 -1 401 3.1496578594669700e-04</internalNodes>
          <leafValues>
            -2.0325133204460144e-01 2.4939636886119843e-01</leafValues></_>
        <_>
          <internalNodes>
            0 -1 194 -1.7248850315809250e-02</internalNodes>
          <leafValues>
            4.6654629707336426e-01 -1.1199241131544113e-01</leafValues></_>
        <_>
          <internalNodes>
            0 -1 339 3.0844477005302906e-03</internalNodes>
          <leafValues>
            -6.8443715572357178e-02 6.8947434425354004e-01</leafValues></_>
        <_>
          <internalNodes>
            0 -1 339 -2.6756380684673786e-03</internalNodes>
          <leafValues>
            6.0018855333328247e-01 -7.6493784785270691e-02</leafValues></_>
        <_>
          <internalNodes>
            0 -1 268 -2.0490381866693497e-02</internalNodes>
          <leafValues>
            -5.9998160600662231e-01 9.7629897296428680e-02</leafValues></_>
        <_>
          <internalNodes>
            0 -1 91 -9.4103571027517319e-03</internalNodes>
          <leafValues>
            3.3398753404617310e-01 -1.5397500991821289e-01</leafValues></_>
        <_>
          <internalNodes>
            0 -1 457 1.3934080488979816e-03</internalNodes>
          <leafValues>
            -1.8554580211639404e-01 3.0196508765220642e-01</leafValues></_>
        <_>
          <internalNodes>
            0 -1 459 -4.7665458987466991e-04</internalNodes>
          <leafValues>
            2.9722312092781067e-01 -2.0021545886993408e-01</leafValues></_></weakClassifiers></_>
    <!-- stage 10 -->
    <_>
      <maxWeakCount>36</maxWeakCount>
      <stageThreshold>-8.6432486772537231e-01</stageThreshold>
      <weakClassifiers>
        <_>
          <internalNodes>
            0 -1 406 1.1436849832534790e-02</internalNodes>
          <leafValues>
            3.0006566643714905e-01 -7.4025976657867432e-01</leafValues></_>
        <_>
          <internalNodes>
            0 -1 101 -9.7092330455780029e-02</internalNodes>
          <leafValues>
            4.2041054368019104e-01 -9.7522802650928497e-02</leafValues></_>
        <_>
          <internalNodes>
            0 -1 579 -6.0964180156588554e-03</internalNodes>
          <leafValues>
            6.1207425594329834e-01 -6.7138619720935822e-02</leafValues></_>
        <_>
          <internalNodes>
            0 -1 1 -1.0324957966804504e-01</internalNodes>
          <leafValues>
            5.6475836038589478e-01 -7.6471373438835144e-02</leafValues></_>
        <_>
          <internalNodes>
            0 -1 175 -1.5614510630257428e-04</internalNodes>
          <leafValues>
            -2.4447055160999298e-01 1.6849406063556671e-01</leafValues></_>
        <_>
          <internalNodes>
            0 -1 517 -4.0747530758380890e-02</internalNodes>
          <leafValues>
            -5.7455086708068848e-01 4.5509871095418930e-02</leafValues></_>
        <_>
          <internalNodes>
            0 -1 16 2.1516559645533562e-02</internalNodes>
          <leafValues>
            -1.1294885724782944e-01 3.5787695646286011e-01</leafValues></_>
        <_>
          <internalNodes>
            0 -1 655 -3.4772695507854223e-03</internalNodes>
          <leafValues>
            2.7601790428161621e-01 -1.5778173506259918e-01</leafValues></_>
        <_>
          <internalNodes>
            0 -1 236 1.2727743387222290e-01</internalNodes>
          <leafValues>
            -5.9377755969762802e-02 4.8870131373405457e-01</leafValues></_>
        <_>
          <internalNodes>
            0 -1 555 -1.9191086292266846e-02</internalNodes>
          <leafValues>
            -4.8791235685348511e-01 7.9938776791095734e-02</leafValues></_>
        <_>
          <internalNodes>
            0 -1 455 5.5931076407432556e-02</internalNodes>
          <leafValues>
            7.7122308313846588e-02 -4.2104458808898926e-01</leafValues></_>
        <_>
          <internalNodes>
            0 -1 92 -3.8131740875542164e-03</internalNodes>
          <leafValues>
            1.8421445786952972e-01 -1.9797576963901520e-01</leafValues></_>
        <_>
          <internalNodes>
            0 -1 683 -3.1642807880416512e-04</internalNodes>
          <leafValues>
            -2.2983284294605255e-01 1.9370187819004059e-01</leafValues></_>
        <_>
          <internalNodes>
            0 -1 115 9.1519534587860107e-02</internalNodes>
          <leafValues>
            4.4389326125383377e-02 -7.2162675857543945e-01</leafValues></_>
        <_>
          <internalNodes>
            0 -1 562 -1.2619200162589550e-02</internalNodes>
          <leafValues>
            3.7969025969505310e-01 -1.0165335983037949e-01</leafValues></_>
        <_>
          <internalNodes>
            0 -1 491 -5.7388497516512871e-03</internalNodes>
          <leafValues>
            -3.9639997482299805e-01 1.0526598989963531e-01</leafValues></_>
        <_>
          <internalNodes>
            0 -1 527 2.5466139777563512e-04</internalNodes>
          <leafValues>
            1.2958510220050812e-01 -3.0519351363182068e-01</leafValues></_>
        <_>
          <internalNodes>
            0 -1 717 -4.5981900766491890e-03</internalNodes>
          <leafValues>
            5.5751156806945801e-01 -8.1441812217235565e-02</leafValues></_>
        <_>
          <internalNodes>
            0 -1 578 3.0536687001585960e-02</internalNodes>
          <leafValues>
            -4.5853007584810257e-02 7.9965752363204956e-01</leafValues></_>
        <_>
          <internalNodes>
            0 -1 738 -2.6021846570074558e-03</internalNodes>
          <leafValues>
            -4.0458035469055176e-01 1.0414512455463409e-01</leafValues></_>
        <_>
          <internalNodes>
            0 -1 29 7.7722719870507717e-03</internalNodes>
          <leafValues>
            1.6812056303024292e-01 -2.3732452094554901e-01</leafValues></_>
        <_>
          <internalNodes>
            0 -1 649 -4.0891766548156738e-03</internalNodes>
          <leafValues>
            2.7554833889007568e-01 -1.7601242661476135e-01</leafValues></_>
        <_>
          <internalNodes>
            0 -1 642 -9.0944673866033554e-03</internalNodes>
          <leafValues>
            -5.8149009943008423e-01 7.3789425194263458e-02</leafValues></_>
        <_>
          <internalNodes>
            0 -1 682 -9.8475284175947309e-05</internalNodes>
          <leafValues>
            -2.4356311559677124e-01 1.6612356901168823e-01</leafValues></_>
        <_>
          <internalNodes>
            0 -1 573 -8.2086101174354553e-02</internalNodes>
          <leafValues>
            -5.6627231836318970e-01 7.6185740530490875e-02</leafValues></_>
        <_>
          <internalNodes>
            0 -1 294 -8.7550714612007141e-02</internalNodes>
          <leafValues>
            -7.7788698673248291e-01 5.4439309984445572e-02</leafValues></_>
        <_>
          <internalNodes>
            0 -1 621 1.6795074567198753e-02</internalNodes>
          <leafValues>
            7.6162703335285187e-02 -5.2155488729476929e-01</leafValues></_>
        <_>
          <internalNodes>
            0 -1 402 -1.3762983493506908e-02</internalNodes>
          <leafValues>
            -7.2492432594299316e-01 5.1038466393947601e-02</leafValues></_>
        <_>
          <internalNodes>
            0 -1 609 -2.7675926685333252e-03</internalNodes>
          <leafValues>
            5.1934933662414551e-01 -8.7322756648063660e-02</leafValues></_>
        <_>
          <internalNodes>
            0 -1 5 3.6588743329048157e-02</internalNodes>
          <leafValues>
            7.7065460383892059e-02 -5.6249403953552246e-01</leafValues></_>
        <_>
          <internalNodes>
            0 -1 4 -9.0383458882570267e-03</internalNodes>
          <leafValues>
            -3.9191561937332153e-01 1.1428362131118774e-01</leafValues></_>
        <_>
          <internalNodes>
            0 -1 2 2.5376159697771072e-02</internalNodes>
          <leafValues>
            7.2794929146766663e-02 -5.8925181627273560e-01</leafValues></_>
        <_>
          <internalNodes>
            0 -1 325 -1.6533839516341686e-04</internalNodes>
          <leafValues>
            -2.9556891322135925e-01 1.4489687979221344e-01</leafValues></_>
        <_>
          <internalNodes>
            0 -1 574 -1.5809401869773865e-02</internalNodes>
          <leafValues>
            -7.3031467199325562e-01 5.6796174496412277e-02</leafValues></_>
        <_>
          <internalNodes>
            0 -1 353 -6.5203581470996141e-04</internalNodes>
          <leafValues>
            2.1593165397644043e-01 -2.0148904621601105e-01</leafValues></_>
        <_>
          <internalNodes>
            0 -1 275 -7.1580633521080017e-03</internalNodes>
          <leafValues>
            2.9194894433021545e-01 -2.0486378669738770e-01</leafValues></_></weakClassifiers></_>
    <!-- stage 11 -->
    <_>
      <maxWeakCount>66</maxWeakCount>
      <stageThreshold>-8.1277495622634888e-01</stageThreshold>
      <weakClassifiers>
        <_>
          <internalNodes>
            0 -1 473 5.2876845002174377e-02</internalNodes>
          <leafValues>
            3.1444367766380310e-01 -3.5947713255882263e-01</leafValues></_>
        <_>
          <internalNodes>
            0 -1 473 5.2171997725963593e-02</internalNodes>
          <leafValues>
            9.9724289029836655e-03 1.</leafValues></_>
        <_>
          <internalNodes>
            0 -1 473 5.2020121365785599e-02</internalNodes>
          <leafValues>
            2.0205327309668064e-03 -1.</leafValues></_>
        <_>
          <internalNodes>
            0 -1 473 5.1078476011753082e-02</internalNodes>
          <leafValues>
            -1.5831106575205922e-03 1.</leafValues></_>
        <_>
          <internalNodes>
            0 -1 473 5.0568267703056335e-02</internalNodes>
          <leafValues>
            1.0131698800250888e-03 -1.</leafValues></_>
        <_>
          <internalNodes>
            0 -1 473 5.0494764000177383e-02</internalNodes>
          <leafValues>
            -1.0582007234916091e-03 1.</leafValues></_>
        <_>
          <internalNodes>
            0 -1 473 5.0401315093040466e-02</internalNodes>
          <leafValues>
            1.0152279864996672e-03 -1.</leafValues></_>
        <_>
          <internalNodes>
            0 -1 473 5.0299942493438721e-02</internalNodes>
          <leafValues>
            -5.2994134603068233e-04 1.</leafValues></_>
        <_>
          <internalNodes>
            0 -1 473 5.0161391496658325e-02</internalNodes>
          <leafValues>
            1.0172938928008080e-03 -1.</leafValues></_>
        <_>
          <internalNodes>
            0 -1 473 4.9091033637523651e-02</internalNodes>
          <leafValues>
            -4.3111452832818031e-03 9.6723330020904541e-01</leafValues></_>
        <_>
          <internalNodes>
            0 -1 473 4.8925884068012238e-02</internalNodes>
          <leafValues>
            1.0214237263426185e-03 -1.</leafValues></_>
        <_>
          <internalNodes>
            0 -1 473 4.8800386488437653e-02</internalNodes>
          <leafValues>
            -1.0729610221460462e-03 9.6978092193603516e-01</leafValues></_>
        <_>
          <internalNodes>
            0 -1 473 4.7454565763473511e-02</internalNodes>
          <leafValues>
            2.5395813863724470e-03 -9.9280756711959839e-01</leafValues></_>
        <_>
          <internalNodes>
            0 -1 473 4.5443072915077209e-02</internalNodes>
          <leafValues>
            -4.9193203449249268e-03 9.4720840454101562e-01</leafValues></_>
        <_>
          <internalNodes>
            0 -1 473 4.5389138162136078e-02</internalNodes>
          <leafValues>
            1.0319520952180028e-03 -9.9232059717178345e-01</leafValues></_>
        <_>
          <internalNodes>
            0 -1 473 4.5332953333854675e-02</internalNodes>
          <leafValues>
            -5.4436543723568320e-04 9.5197993516921997e-01</leafValues></_>
        <_>
          <internalNodes>
            0 -1 473 4.5258782804012299e-02</internalNodes>
          <leafValues>
            1.0341261513531208e-03 -9.9173796176910400e-01</leafValues></_>
        <_>
          <internalNodes>
            0 -1 473 4.3684303760528564e-02</internalNodes>
          <leafValues>
            -2.7909693308174610e-03 9.3460732698440552e-01</leafValues></_>
        <_>
          <internalNodes>
            0 -1 473 4.2644910514354706e-02</internalNodes>
          <leafValues>
            4.6646217815577984e-03 -9.8369276523590088e-01</leafValues></_>
        <_>
          <internalNodes>
            0 -1 473 4.2010467499494553e-02</internalNodes>
          <leafValues>
            -2.7547872159630060e-03 9.4310593605041504e-01</leafValues></_>
        <_>
          <internalNodes>
            0 -1 473 4.1937768459320068e-02</internalNodes>
          <leafValues>
            1.0493110166862607e-03 -9.8245716094970703e-01</leafValues></_>
        <_>
          <internalNodes>
            0 -1 473 4.1238375008106232e-02</internalNodes>
          <leafValues>
            -3.3880022820085287e-03 9.3042868375778198e-01</leafValues></_>
        <_>
          <internalNodes>
            0 -1 473 4.1155122220516205e-02</internalNodes>
          <leafValues>
            2.1096917334944010e-03 -9.8121702671051025e-01</leafValues></_>
        <_>
          <internalNodes>
            0 -1 473 4.1010364890098572e-02</internalNodes>
          <leafValues>
            -1.6750387148931623e-03 9.3785202503204346e-01</leafValues></_>
        <_>
          <internalNodes>
            0 -1 473 3.8895543664693832e-02</internalNodes>
          <leafValues>
            5.7246573269367218e-03 -6.3029229640960693e-01</leafValues></_>
        <_>
          <internalNodes>
            0 -1 209 -1.2947400682605803e-04</internalNodes>
          <leafValues>
            -2.7628138661384583e-01 1.5336664021015167e-01</leafValues></_>
        <_>
          <internalNodes>
            0 -1 554 -6.6162108851131052e-05</internalNodes>
          <leafValues>
            -2.1621780097484589e-01 1.8205457925796509e-01</leafValues></_>
        <_>
          <internalNodes>
            0 -1 507 -2.3183520534075797e-04</internalNodes>
          <leafValues>
            -3.0203664302825928e-01 1.3817508518695831e-01</leafValues></_>
        <_>
          <internalNodes>
            0 -1 340 -7.1405842900276184e-02</internalNodes>
          <leafValues>
            -4.6447628736495972e-01 8.0869235098361969e-02</leafValues></_>
        <_>
          <internalNodes>
            0 -1 142 -1.5097017399966717e-02</internalNodes>
          <leafValues>
            5.9829634428024292e-01 -6.7469142377376556e-02</leafValues></_>
        <_>
          <internalNodes>
            0 -1 480 2.4895131587982178e-02</internalNodes>
          <leafValues>
            -2.3083664476871490e-01 2.0741796493530273e-01</leafValues></_>
        <_>
          <internalNodes>
            0 -1 392 1.0212536901235580e-02</internalNodes>
          <leafValues>
            5.8030270040035248e-02 -5.5846923589706421e-01</leafValues></_>
        <_>
          <internalNodes>
            0 -1 106 2.1755622699856758e-02</internalNodes>
          <leafValues>
            6.8961270153522491e-02 -6.7025387287139893e-01</leafValues></_>
        <_>
          <internalNodes>
            0 -1 307 -1.5241160872392356e-04</internalNodes>
          <leafValues>
            -2.9446041584014893e-01 1.5058949589729309e-01</leafValues></_>
        <_>
          <internalNodes>
            0 -1 604 2.0049000158905983e-02</internalNodes>
          <leafValues>
            8.2310132682323456e-02 -4.8616030812263489e-01</leafValues></_>
        <_>
          <internalNodes>
            0 -1 271 1.3809204101562500e-03</internalNodes>
          <leafValues>
            1.2471399456262589e-01 -2.9177981615066528e-01</leafValues></_>
        <_>
          <internalNodes>
            0 -1 304 -3.1536877155303955e-02</internalNodes>
          <leafValues>
            2.8496950864791870e-01 -1.4100243151187897e-01</leafValues></_>
        <_>
          <internalNodes>
            0 -1 14 9.0534090995788574e-01</internalNodes>
          <leafValues>
            -8.6641117930412292e-02 5.7176828384399414e-01</leafValues></_>
        <_>
          <internalNodes>
            0 -1 245 -9.2867366969585419e-02</internalNodes>
          <leafValues>
            5.5925190448760986e-01 -8.1622019410133362e-02</leafValues></_>
        <_>
          <internalNodes>
            0 -1 571 -3.7976562976837158e-02</internalNodes>
          <leafValues>
            -5.1358222961425781e-01 9.6419185400009155e-02</leafValues></_>
        <_>
          <internalNodes>
            0 -1 707 -5.9232991188764572e-03</internalNodes>
          <leafValues>
            3.9263212680816650e-01 -1.1140727251768112e-01</leafValues></_>
        <_>
          <internalNodes>
            0 -1 648 1.2552324682474136e-02</internalNodes>
          <leafValues>
            8.6944542825222015e-02 -5.4577422142028809e-01</leafValues></_>
        <_>
          <internalNodes>
            0 -1 726 5.1491372287273407e-03</internalNodes>
          <leafValues>
            -9.2321626842021942e-02 5.0703930854797363e-01</leafValues></_>
        <_>
          <internalNodes>
            0 -1 99 -5.5204825475811958e-03</internalNodes>
          <leafValues>
            2.8772512078285217e-01 -1.3135649263858795e-01</leafValues></_>
        <_>
          <internalNodes>
            0 -1 324 -2.5460845790803432e-04</internalNodes>
          <leafValues>
            -2.4117296934127808e-01 1.5434299409389496e-01</leafValues></_>
        <_>
          <internalNodes>
            0 -1 24 4.1815461590886116e-03</internalNodes>
          <leafValues>
            -9.0309090912342072e-02 3.9882484078407288e-01</leafValues></_>
        <_>
          <internalNodes>
            0 -1 145 5.9469435655046254e-05</internalNodes>
          <leafValues>
            1.6933360695838928e-01 -2.1930666267871857e-01</leafValues></_>
        <_>
          <internalNodes>
            0 -1 90 7.3790582828223705e-03</internalNodes>
          <leafValues>
            -1.8338277935981750e-01 2.3220545053482056e-01</leafValues></_>
        <_>
          <internalNodes>
            0 -1 287 1.9269358366727829e-02</internalNodes>
          <leafValues>
            -1.1418451368808746e-01 3.5113722085952759e-01</leafValues></_>
        <_>
          <internalNodes>
            0 -1 590 -1.7962905764579773e-01</internalNodes>
          <leafValues>
            8.5497665405273438e-01 -4.4501554220914841e-02</leafValues></_>
        <_>
          <internalNodes>
            0 -1 662 -1.2256478657945991e-04</internalNodes>
          <leafValues>
            -2.3192994296550751e-01 1.7774900794029236e-01</leafValues></_>
        <_>
          <internalNodes>
            0 -1 617 2.6077165966853499e-04</internalNodes>
          <leafValues>
            1.4423349499702454e-01 -2.4564734101295471e-01</leafValues></_>
        <_>
          <internalNodes>
            0 -1 658 3.6693625152111053e-03</internalNodes>
          <leafValues>
            -9.2957034707069397e-02 4.0575188398361206e-01</leafValues></_>
        <_>
          <internalNodes>
            0 -1 634 -1.4215492410585284e-04</internalNodes>
          <leafValues>
            -2.4749259650707245e-01 1.5859575569629669e-01</leafValues></_>
        <_>
          <internalNodes>
            0 -1 263 3.1651109457015991e-02</internalNodes>
          <leafValues>
            -8.0157645046710968e-02 4.7313639521598816e-01</leafValues></_>
        <_>
          <internalNodes>
            0 -1 205 -7.2252559475600719e-03</internalNodes>
          <leafValues>
            2.6840695738792419e-01 -1.5914896130561829e-01</leafValues></_>
        <_>
          <internalNodes>
            0 -1 664 -1.1697530746459961e-02</internalNodes>
          <leafValues>
            7.2655659914016724e-01 -4.1469573974609375e-02</leafValues></_>
        <_>
          <internalNodes>
            0 -1 122 -1.0606140131130815e-04</internalNodes>
          <leafValues>
            -2.4179428815841675e-01 1.5398626029491425e-01</leafValues></_>
        <_>
          <internalNodes>
            0 -1 292 3.6474179942160845e-03</internalNodes>
          <leafValues>
            -7.5865462422370911e-02 5.2419841289520264e-01</leafValues></_>
        <_>
          <internalNodes>
            0 -1 180 -4.2426511645317078e-03</internalNodes>
          <leafValues>
            2.2496777772903442e-01 -1.5526998043060303e-01</leafValues></_>
        <_>
          <internalNodes>
            0 -1 363 2.6178576052188873e-02</internalNodes>
          <leafValues>
            -8.0548077821731567e-02 4.6952515840530396e-01</leafValues></_>
        <_>
          <internalNodes>
            0 -1 620 5.4333329899236560e-05</internalNodes>
          <leafValues>
            1.7499129474163055e-01 -2.3271545767784119e-01</leafValues></_>
        <_>
          <internalNodes>
            0 -1 622 3.5927898716181517e-04</internalNodes>
          <leafValues>
            1.2730635702610016e-01 -3.2558315992355347e-01</leafValues></_>
        <_>
          <internalNodes>
            0 -1 607 -1.1351354420185089e-02</internalNodes>
          <leafValues>
            3.6207991838455200e-01 -1.1068192869424820e-01</leafValues></_>
        <_>
          <internalNodes>
            0 -1 564 -1.5543922781944275e-03</internalNodes>
          <leafValues>
            2.8290703892707825e-01 -1.2779502570629120e-01</leafValues></_>
        <_>
          <internalNodes>
            0 -1 623 -1.5954926493577659e-04</internalNodes>
          <leafValues>
            -2.7590733766555786e-01 1.4995309710502625e-01</leafValues></_></weakClassifiers></_>
    <!-- stage 12 -->
    <_>
      <maxWeakCount>39</maxWeakCount>
      <stageThreshold>-8.3924502134323120e-01</stageThreshold>
      <weakClassifiers>
        <_>
          <internalNodes>
            0 -1 354 -1.1448827572166920e-03</internalNodes>
          <leafValues>
            4.7051113843917847e-01 4.8984467983245850e-02</leafValues></_>
        <_>
          <internalNodes>
            0 -1 102 9.7976932302117348e-03</internalNodes>
          <leafValues>
            -5.8851771056652069e-02 5.8676487207412720e-01</leafValues></_>
        <_>
          <internalNodes>
            0 -1 675 5.8396760374307632e-02</internalNodes>
          <leafValues>
            4.8117078840732574e-02 -6.9695317745208740e-01</leafValues></_>
        <_>
          <internalNodes>
            0 -1 296 1.6376760601997375e-01</internalNodes>
          <leafValues>
            -5.6558400392532349e-02 6.0405004024505615e-01</leafValues></_>
        <_>
          <internalNodes>
            0 -1 412 9.6141913672909141e-05</internalNodes>
          <leafValues>
            1.7833580076694489e-01 -2.4023295938968658e-01</leafValues></_>
        <_>
          <internalNodes>
            0 -1 565 4.0182778611779213e-03</internalNodes>
          <leafValues>
            -4.9456886947154999e-02 7.0408755540847778e-01</leafValues></_>
        <_>
          <internalNodes>
            0 -1 702 1.8568069208413363e-03</internalNodes>
          <leafValues>
            -7.8770145773887634e-02 4.9893024563789368e-01</leafValues></_>
        <_>
          <internalNodes>
            0 -1 169 -4.8790861910674721e-05</internalNodes>
          <leafValues>
            -2.6374310255050659e-01 1.8540990352630615e-01</leafValues></_>
        <_>
          <internalNodes>
            0 -1 318 -8.4964726120233536e-03</internalNodes>
          <leafValues>
            3.4419935941696167e-01 -1.2645575404167175e-01</leafValues></_>
        <_>
          <internalNodes>
            0 -1 408 -2.0808600820600986e-03</internalNodes>
          <leafValues>
            2.5711917877197266e-01 -1.6926661133766174e-01</leafValues></_>
        <_>
          <internalNodes>
            0 -1 488 1.7843795940279961e-02</internalNodes>
          <leafValues>
            9.6347898244857788e-02 -4.7036668658256531e-01</leafValues></_>
        <_>
          <internalNodes>
            0 -1 373 2.7689638081938028e-03</internalNodes>
          <leafValues>
            -7.6324179768562317e-02 5.9109824895858765e-01</leafValues></_>
        <_>
          <internalNodes>
            0 -1 452 1.4283902943134308e-02</internalNodes>
          <leafValues>
            -5.1559261977672577e-02 6.7645180225372314e-01</leafValues></_>
        <_>
          <internalNodes>
            0 -1 359 -1.7078794538974762e-02</internalNodes>
          <leafValues>
            -5.9353715181350708e-01 9.1902554035186768e-02</leafValues></_>
        <_>
          <internalNodes>
            0 -1 688 3.7658682558685541e-03</internalNodes>
          <leafValues>
            -9.3166112899780273e-02 4.7765931487083435e-01</leafValues></_>
        <_>
          <internalNodes>
            0 -1 86 -3.4800439607352018e-05</internalNodes>
          <leafValues>
            -2.6906296610832214e-01 1.5341971814632416e-01</leafValues></_>
        <_>
          <internalNodes>
            0 -1 678 1.0967988055199385e-04</internalNodes>
          <leafValues>
            1.6075854003429413e-01 -2.5752243399620056e-01</leafValues></_>
        <_>
          <internalNodes>
            0 -1 628 -1.0055467719212174e-03</internalNodes>
          <leafValues>
            2.3990675806999207e-01 -1.7094156146049500e-01</leafValues></_>
        <_>
          <internalNodes>
            0 -1 258 3.0751464888453484e-02</internalNodes>
          <leafValues>
            -6.0499370098114014e-02 6.6990554332733154e-01</leafValues></_>
        <_>
          <internalNodes>
            0 -1 203 -4.0747784078121185e-03</internalNodes>
          <leafValues>
            4.2569860816001892e-01 -9.8144493997097015e-02</leafValues></_>
        <_>
          <internalNodes>
            0 -1 338 5.7454802095890045e-02</internalNodes>
          <leafValues>
            8.5222750902175903e-02 -5.6250220537185669e-01</leafValues></_>
        <_>
          <internalNodes>
            0 -1 663 2.6932414621114731e-03</internalNodes>
          <leafValues>
            -7.1526795625686646e-02 6.1303240060806274e-01</leafValues></_>
        <_>
          <internalNodes>
            0 -1 719 -7.7927028760313988e-03</internalNodes>
          <leafValues>
            4.1404703259468079e-01 -9.0914107859134674e-02</leafValues></_>
        <_>
          <internalNodes>
            0 -1 418 -5.0381012260913849e-04</internalNodes>
          <leafValues>
            -3.6041706800460815e-01 1.2019307911396027e-01</leafValues></_>
        <_>
          <internalNodes>
            0 -1 75 -4.2819348163902760e-03</internalNodes>
          <leafValues>
            4.9435573816299438e-01 -8.3483189344406128e-02</leafValues></_>
        <_>
          <internalNodes>
            0 -1 262 -5.7394172996282578e-02</internalNodes>
          <leafValues>
            6.0069614648818970e-01 -5.9137847274541855e-02</leafValues></_>
        <_>
          <internalNodes>
            0 -1 30 4.0550492703914642e-02</internalNodes>
          <leafValues>
            9.8451018333435059e-02 -4.3702659010887146e-01</leafValues></_>
        <_>
          <internalNodes>
            0 -1 410 -1.5487284399569035e-03</internalNodes>
          <leafValues>
            2.7901470661163330e-01 -1.7872658371925354e-01</leafValues></_>
        <_>
          <internalNodes>
            0 -1 640 1.1899650096893311e-02</internalNodes>
          <leafValues>
            9.4561263918876648e-02 -4.9323388934135437e-01</leafValues></_>
        <_>
          <internalNodes>
            0 -1 208 -3.1799599528312683e-02</internalNodes>
          <leafValues>
            4.7686868906021118e-01 -1.0848050564527512e-01</leafValues></_>
        <_>
          <internalNodes>
            0 -1 135 -3.8530535995960236e-02</internalNodes>
          <leafValues>
            -9.1263341903686523e-01 5.7736624032258987e-02</leafValues></_>
        <_>
          <internalNodes>
            0 -1 47 3.1186959240585566e-03</internalNodes>
          <leafValues>
            -1.1350650340318680e-01 3.8791850209236145e-01</leafValues></_>
        <_>
          <internalNodes>
            0 -1 444 3.3972428645938635e-03</internalNodes>
          <leafValues>
            -1.3350200653076172e-01 3.1469374895095825e-01</leafValues></_>
        <_>
          <internalNodes>
            0 -1 50 -2.6565683074295521e-03</internalNodes>
          <leafValues>
            5.5509126186370850e-01 -7.6035365462303162e-02</leafValues></_>
        <_>
          <internalNodes>
            0 -1 599 1.2497758143581450e-04</internalNodes>
          <leafValues>
            1.5386848151683807e-01 -2.7456694841384888e-01</leafValues></_>
        <_>
          <internalNodes>
            0 -1 393 9.9379429593682289e-03</internalNodes>
          <leafValues>
            -1.5542618930339813e-01 2.7855554223060608e-01</leafValues></_>
        <_>
          <internalNodes>
            0 -1 725 6.6935406066477299e-03</internalNodes>
          <leafValues>
            -7.1410626173019409e-02 5.8267098665237427e-01</leafValues></_>
        <_>
          <internalNodes>
            0 -1 600 -9.2187052359804511e-05</internalNodes>
          <leafValues>
            -2.5143873691558838e-01 1.6900092363357544e-01</leafValues></_>
        <_>
          <internalNodes>
            0 -1 239 -1.6047410666942596e-02</internalNodes>
          <leafValues>
            -5.8991962671279907e-01 6.6424340009689331e-02</leafValues></_></weakClassifiers></_>
    <!-- stage 13 -->
    <_>
      <maxWeakCount>41</maxWeakCount>
      <stageThreshold>-6.9454747438430786e-01</stageThreshold>
      <weakClassifiers>
        <_>
          <internalNodes>
            0 -1 40 1.3534480333328247e-01</internalNodes>
          <leafValues>
            1.6590562462806702e-01 6.3636362552642822e-01</leafValues></_>
        <_>
          <internalNodes>
            0 -1 53 4.1727367788553238e-03</internalNodes>
          <leafValues>
            -3.2222997397184372e-02 6.3134723901748657e-01</leafValues></_>
        <_>
          <internalNodes>
            0 -1 646 -1.0596878128126264e-03</internalNodes>
          <leafValues>
            -2.5787258148193359e-01 1.0623812675476074e-01</leafValues></_>
        <_>
          <internalNodes>
            0 -1 633 1.0990317910909653e-02</internalNodes>
          <leafValues>
            9.9477387964725494e-02 -3.2422104477882385e-01</leafValues></_>
        <_>
          <internalNodes>
            0 -1 168 -2.0498353114817291e-04</internalNodes>
          <leafValues>
            -2.1219772100448608e-01 1.4054791629314423e-01</leafValues></_>
        <_>
          <internalNodes>
            0 -1 313 -1.2148434296250343e-02</internalNodes>
          <leafValues>
            -4.9784094095230103e-01 3.3414833247661591e-02</leafValues></_>
        <_>
          <internalNodes>
            0 -1 183 -2.6386540383100510e-02</internalNodes>
          <leafValues>
            4.5198348164558411e-01 -8.5344783961772919e-02</leafValues></_>
        <_>
          <internalNodes>
            0 -1 581 -1.1325519531965256e-02</internalNodes>
          <leafValues>
            -7.9379552602767944e-01 3.7320964038372040e-02</leafValues></_>
        <_>
          <internalNodes>
            0 -1 550 -2.2084191441535950e-03</internalNodes>
          <leafValues>
            3.2559421658515930e-01 -1.1608351767063141e-01</leafValues></_>
        <_>
          <internalNodes>
            0 -1 39 2.2282250225543976e-02</internalNodes>
          <leafValues>
            -9.6804596483707428e-02 3.5581481456756592e-01</leafValues></_>
        <_>
          <internalNodes>
            0 -1 348 4.8999693244695663e-03</internalNodes>
          <leafValues>
            9.8392203450202942e-02 -3.6081033945083618e-01</leafValues></_>
        <_>
          <internalNodes>
            0 -1 129 -5.0111740827560425e-02</internalNodes>
          <leafValues>
            -6.9277679920196533e-01 5.1918178796768188e-02</leafValues></_>
        <_>
          <internalNodes>
            0 -1 210 -5.0128292292356491e-02</internalNodes>
          <leafValues>
            2.2516947984695435e-01 -1.5079216659069061e-01</leafValues></_>
        <_>
          <internalNodes>
            0 -1 484 1.7553997039794922e-01</internalNodes>
          <leafValues>
            -7.9982936382293701e-02 4.6690520644187927e-01</leafValues></_>
        <_>
          <internalNodes>
            0 -1 497 -2.5193344801664352e-02</internalNodes>
          <leafValues>
            -8.2934981584548950e-01 4.5881904661655426e-02</leafValues></_>
        <_>
          <internalNodes>
            0 -1 361 -1.0299906134605408e-02</internalNodes>
          <leafValues>
            3.9058101177215576e-01 -9.2742539942264557e-02</leafValues></_>
        <_>
          <internalNodes>
            0 -1 487 3.2791309058666229e-02</internalNodes>
          <leafValues>
            5.3548775613307953e-02 -6.8833935260772705e-01</leafValues></_>
        <_>
          <internalNodes>
            0 -1 295 4.0192369371652603e-02</internalNodes>
          <leafValues>
            -9.0667396783828735e-02 3.7099689245223999e-01</leafValues></_>
        <_>
          <internalNodes>
            0 -1 114 1.4851203188300133e-02</internalNodes>
          <leafValues>
            7.3378480970859528e-02 -5.6972241401672363e-01</leafValues></_>
        <_>
          <internalNodes>
            0 -1 107 1.3278151527629234e-05</internalNodes>
          <leafValues>
            -1.7176803946495056e-01 1.8533140420913696e-01</leafValues></_>
        <_>
          <internalNodes>
            0 -1 355 1.0970805771648884e-02</internalNodes>
          <leafValues>
            -4.2717814445495605e-02 7.7266013622283936e-01</leafValues></_>
        <_>
          <internalNodes>
            0 -1 440 -5.3056459873914719e-03</internalNodes>
          <leafValues>
            -4.4655305147171021e-01 8.2532092928886414e-02</leafValues></_>
        <_>
          <internalNodes>
            0 -1 439 -1.3315780088305473e-02</internalNodes>
          <leafValues>
            -4.3565174937248230e-01 7.8766204416751862e-02</leafValues></_>
        <_>
          <internalNodes>
            0 -1 710 3.1815373804420233e-03</internalNodes>
          <leafValues>
            -6.1298504471778870e-02 5.2913510799407959e-01</leafValues></_>
        <_>
          <internalNodes>
            0 -1 670 5.5966220796108246e-02</internalNodes>
          <leafValues>
            -5.4831758141517639e-02 5.5925559997558594e-01</leafValues></_>
        <_>
          <internalNodes>
            0 -1 232 -6.8530276417732239e-02</internalNodes>
          <leafValues>
            4.7711500525474548e-01 -6.7975625395774841e-02</leafValues></_>
        <_>
          <internalNodes>
            0 -1 19 -2.7574333362281322e-03</internalNodes>
          <leafValues>
            5.0279784202575684e-01 -6.0527957975864410e-02</leafValues></_>
        <_>
          <internalNodes>
            0 -1 535 1.4793299138545990e-02</internalNodes>
          <leafValues>
            -5.2056502550840378e-02 5.9462815523147583e-01</leafValues></_>
        <_>
          <internalNodes>
            0 -1 174 -1.7536152154207230e-04</internalNodes>
          <leafValues>
            -2.4030475318431854e-01 1.5075984597206116e-01</leafValues></_>
        <_>
          <internalNodes>
            0 -1 140 -1.4183835592120886e-03</internalNodes>
          <leafValues>
            -2.6698517799377441e-01 1.3796366751194000e-01</leafValues></_>
        <_>
          <internalNodes>
            0 -1 15 -3.8562887348234653e-03</internalNodes>
          <leafValues>
            3.0146270990371704e-01 -1.2802255153656006e-01</leafValues></_>
        <_>
          <internalNodes>
            0 -1 417 -1.3739250600337982e-02</internalNodes>
          <leafValues>
            7.9306280612945557e-01 -4.4868789613246918e-02</leafValues></_>
        <_>
          <internalNodes>
            0 -1 661 1.5877411351539195e-04</internalNodes>
          <leafValues>
            1.3242025673389435e-01 -2.6836621761322021e-01</leafValues></_>
        <_>
          <internalNodes>
            0 -1 501 1.5995927387848496e-03</internalNodes>
          <leafValues>
            -1.6637103259563446e-01 2.2808586061000824e-01</leafValues></_>
        <_>
          <internalNodes>
            0 -1 536 2.1475513931363821e-03</internalNodes>
          <leafValues>
            -1.7791573703289032e-01 2.1812172234058380e-01</leafValues></_>
        <_>
          <internalNodes>
            0 -1 282 -2.2220339626073837e-02</internalNodes>
          <leafValues>
            2.3124219477176666e-01 -1.7268674075603485e-01</leafValues></_>
        <_>
          <internalNodes>
            0 -1 7 7.7030574902892113e-03</internalNodes>
          <leafValues>
            8.9148037135601044e-02 -4.2072755098342896e-01</leafValues></_>
        <_>
          <internalNodes>
            0 -1 492 -4.1934564709663391e-02</internalNodes>
          <leafValues>
            8.8072377443313599e-01 -3.8397584110498428e-02</leafValues></_>
        <_>
          <internalNodes>
            0 -1 230 -4.4006627053022385e-02</internalNodes>
          <leafValues>
            -6.9501292705535889e-01 6.0429804027080536e-02</leafValues></_>
        <_>
          <internalNodes>
            0 -1 231 6.1375290155410767e-02</internalNodes>
          <leafValues>
            -5.8104790747165680e-02 6.9746315479278564e-01</leafValues></_>
        <_>
          <internalNodes>
            0 -1 237 -3.2108232378959656e-01</internalNodes>
          <leafValues>
            -8.7827783823013306e-01 5.1763135939836502e-02</leafValues></_></weakClassifiers></_>
    <!-- stage 14 -->
    <_>
      <maxWeakCount>52</maxWeakCount>
      <stageThreshold>-8.8907593488693237e-01</stageThreshold>
      <weakClassifiers>
        <_>
          <internalNodes>
            0 -1 65 2.1414559334516525e-02</internalNodes>
          <leafValues>
            3.0452674627304077e-01 -3.0985915660858154e-01</leafValues></_>
        <_>
          <internalNodes>
            0 -1 65 2.1341998130083084e-02</internalNodes>
          <leafValues>
            8.9219119399785995e-03 1.</leafValues></_>
        <_>
          <internalNodes>
            0 -1 65 2.1333904936909676e-02</internalNodes>
          <leafValues>
            9.8740356042981148e-04 -1.</leafValues></_>
        <_>
          <internalNodes>
            0 -1 314 -5.9180885553359985e-02</internalNodes>
          <leafValues>
            4.4788914918899536e-01 -7.5492538511753082e-02</leafValues></_>
        <_>
          <internalNodes>
            0 -1 303 -9.8417534900363535e-05</internalNodes>
          <leafValues>
            -2.2109597921371460e-01 1.5699182450771332e-01</leafValues></_>
        <_>
          <internalNodes>
            0 -1 320 -1.0478990152478218e-02</internalNodes>
          <leafValues>
            -4.9848720431327820e-01 7.7069133520126343e-02</leafValues></_>
        <_>
          <internalNodes>
            0 -1 368 1.5648532658815384e-02</internalNodes>
          <leafValues>
            3.3400792628526688e-02 -7.7903312444686890e-01</leafValues></_>
        <_>
          <internalNodes>
            0 -1 179 7.7926338417455554e-04</internalNodes>
          <leafValues>
            -1.9550891220569611e-01 1.8025764822959900e-01</leafValues></_>
        <_>
          <internalNodes>
            0 -1 144 -2.4230670183897018e-02</internalNodes>
          <leafValues>
            3.5961383581161499e-01 -1.0113429278135300e-01</leafValues></_>
        <_>
          <internalNodes>
            0 -1 606 2.3051274474710226e-03</internalNodes>
          <leafValues>
            1.3584083318710327e-01 -3.1947225332260132e-01</leafValues></_>
        <_>
          <internalNodes>
            0 -1 597 -4.0935621655080467e-05</internalNodes>
          <leafValues>
            -1.7660832405090332e-01 1.9052352011203766e-01</leafValues></_>
        <_>
          <internalNodes>
            0 -1 103 9.4243593048304319e-04</internalNodes>
          <leafValues>
            -1.2210429459810257e-01 3.0443301796913147e-01</leafValues></_>
        <_>
          <internalNodes>
            0 -1 463 1.0378705337643623e-02</internalNodes>
          <leafValues>
            -6.1216421425342560e-02 5.7014364004135132e-01</leafValues></_>
        <_>
          <internalNodes>
            0 -1 653 2.0161770284175873e-02</internalNodes>
          <leafValues>
            4.4422138482332230e-02 -7.8858095407485962e-01</leafValues></_>
        <_>
          <internalNodes>
            0 -1 357 -1.6701265703886747e-03</internalNodes>
          <leafValues>
            1.9929729402065277e-01 -1.7280231416225433e-01</leafValues></_>
        <_>
          <internalNodes>
            0 -1 466 4.2077574878931046e-02</internalNodes>
          <leafValues>
            -1.3384789228439331e-01 3.3583000302314758e-01</leafValues></_>
        <_>
          <internalNodes>
            0 -1 471 1.1884624138474464e-02</internalNodes>
          <leafValues>
